{"learner":{"attributes":{"scikit_learn":"{\"_estimator_type\": \"regressor\"}"},"feature_names":[],"feature_types":[],"gradient_booster":{"model":{"gbtree_model_param":{"num_parallel_tree":"1","num_trees":"100"},"iteration_indptr":[0,1,2,3,4,5,6,7,8,9,10,11,12,13,14,15,16,17,18,19,20,21,22,23,24,25,26,27,28,29,30,31,32,33,34,35,36,37,38,39,40,41,42,43,44,45,46,47,48,49,50,51,52,53,54,55,56,57,58,59,60,61,62,63,64,65,66,67,68,69,70,71,72,73,74,75,76,77,78,79,80,81,82,83,84,85,86,87,88,89,90,91,92,93,94,95,96,97,98,99,100],"tree_info":[0,0,0,0,0,0,0,0,0,0,0,0,0,0,0,0,0,0,0,0,0,0,0,0,0,0,0,0,0,0,0,0,0,0,0,0,0,0,0,0,0,0,0,0,0,0,0,0,0,0,0,0,0,0,0,0,0,0,0,0,0,0,0,0,0,0,0,0,0,0,0,0,0,0,0,0,0,0,0,0,0,0,0,0,0,0,0,0,0,0,0,0,0,0,0,0,0,0,0,0],"trees":[{"base_weights":[-1.3938624E-7,1.82891E1,-1.7314131E0,4.226734E0,4.1311615E1,3.853929E0,-3.447908E0,-3.9191556E0,1.6364286E1,6.68385E1,3.0734365E1,7.863953E-1,1.25893345E1,-1.2000029E0,-4.7364507E0,2.3193276E0,-4.3782206E0,6.7530704E0,2.5013445E1,4.4217926E1,8.543927E1,3.6896603E1,4.5512605E0,-1.4952555E0,3.3408327E0,2.0617233E1,3.34219E0,-3.2096744E0,4.544059E0,-2.946844E0,-4.88976E0,1.3012185E0,-1.1445379E0,-1.7482728E0,-4.6750097E0,3.2272508E0,1.003064E1,2.9507803E1,7.9570227E0,1.0174791E0,4.7621086E1,6.956639E0,2.9008854E1,1.3844033E1,5.2606037E1,-5.734455E-1,7.185294E0,8.7536074E-2,5.9696097E0,3.3309803E0,2.480454E1,-3.247072E-2,1.5155822E1,-5.0474954E0,-1.6298528E0,6.6152024E0,1.9130074E0,-3.8060594E0,3.2574482E0,-1.5034269E0,-4.470242E0,1.17478974E-1,-6.3252103E-1,-1.0720338E0,1.2796636E-1,-1.433348E0,-5.7378155E-1,-8.4336144E-1,1.3403782E0,4.6305885E0,3.457983E-1,1.3145799E1,6.6890235E0,4.0566387E0,9.0796643E-1,1.5241463E1,2.367479E0,2.5827732E0,8.347966E0,7.829964E0,1.7680914E1,-7.4336135E-1,4.5663863E-1,1.0012184E0,2.6479666E0,1.225168E0,-2.7373955E-1,4.9385715E0,1.3377877E0,1.5653782E0,-9.487816E-1,8.513709E0,3.539604E0,4.356639E0,-2.8243703E-1,-5.542017E-1,7.4421854E0,-1.5241482E0,2.6747897E-1,-1.8923192E-1,-8.9742035E-1,4.0110326E0,1.5798252E0,1.4059715E-1,1.3655597E0,-1.2033523E0,7.566387E-1,4.9762187E0,-1.1444119E0,-1.4837726E0,-1.1401427E0],"categories":[],"categories_nodes":[],"categories_segments":[],"categories_sizes":[],"default_left":[0,0,0,0,0,0,0,0,0,0,0,0,0,0,0,0,0,0,0,0,0,0,0,0,0,0,0,0,0,0,0,0,0,0,0,0,0,0,0,0,0,0,0,0,0,0,0,0,0,0,0,0,0,0,0,0,0,0,0,0,0,0,0,0,0,0,0,0,0,0,0,0,0,0,0,0,0,0,0,0,0,0,0,0,0,0,0,0,0,0,0,0,0,0,0,0,0,0,0,0,0,0,0,0,0,0,0,0,0,0,0],"id":0,"left_children":[1,3,5,7,9,11,13,15,17,19,21,23,25,27,29,31,33,35,37,39,41,43,45,-1,47,49,51,53,55,57,59,-1,61,63,65,67,69,71,73,-1,75,-1,-1,77,79,81,83,85,87,89,91,93,95,97,99,101,103,105,107,-1,109,-1,-1,-1,-1,-1,-1,-1,-1,-1,-1,-1,-1,-1,-1,-1,-1,-1,-1,-1,-1,-1,-1,-1,-1,-1,-1,-1,-1,-1,-1,-1,-1,-1,-1,-1,-1,-1,-1,-1,-1,-1,-1,-1,-1,-1,-1,-1,-1,-1,-1],"loss_changes":[7.542838E4,6.651809E4,2.087506E4,1.2818514E4,1.9006094E4,1.37097295E4,4.8170254E3,2.3353638E2,4.153787E3,5.4787812E3,9.028828E3,5.6180737E3,9.804365E3,7.0331406E3,2.7586523E2,4.69062E1,4.8806274E1,2.6808752E2,1.8349629E3,1.50575E3,5.465953E3,1.5930293E4,1.6610414E2,0E0,2.2572559E3,5.0565566E3,2.512113E3,1.3012202E3,8.483318E2,4.7084894E2,2.7259766E1,0E0,5.2675247E0,3.724919E1,9.323242E0,1.1744501E2,6.0597974E2,1.1901973E3,1.5114456E2,0E0,9.9046094E2,0E0,0E0,1.2243455E3,2.9921797E3,2.3725967E1,2.1065552E1,4.7929355E2,2.2402085E3,2.0029799E2,2.3150547E3,6.7516833E2,2.3433022E3,4.5293457E1,3.300251E2,7.3155054E2,2.6847867E2,1.0876514E2,1.1002618E3,0E0,5.3840332E1,0E0,0E0,0E0,0E0,0E0,0E0,0E0,0E0,0E0,0E0,0E0,0E0,0E0,0E0,0E0,0E0,0E0,0E0,0E0,0E0,0E0,0E0,0E0,0E0,0E0,0E0,0E0,0E0,0E0,0E0,0E0,0E0,0E0,0E0,0E0,0E0,0E0,0E0,0E0,0E0,0E0,0E0,0E0,0E0,0E0,0E0,0E0,0E0,0E0,0E0],"parents":[2147483647,0,0,1,1,2,2,3,3,4,4,5,5,6,6,7,7,8,8,9,9,10,10,11,11,12,12,13,13,14,14,15,15,16,16,17,17,18,18,19,19,20,20,21,21,22,22,24,24,25,25,26,26,27,27,28,28,29,29,30,30,32,32,33,33,34,34,35,35,36,36,37,37,38,38,40,40,43,43,44,44,45,45,46,46,47,47,48,48,49,49,50,50,51,51,52,52,53,53,54,54,55,55,56,56,57,57,58,58,60,60],"right_children":[2,4,6,8,10,12,14,16,18,20,22,24,26,28,30,32,34,36,38,40,42,44,46,-1,48,50,52,54,56,58,60,-1,62,64,66,68,70,72,74,-1,76,-1,-1,78,80,82,84,86,88,90,92,94,96,98,100,102,104,106,108,-1,110,-1,-1,-1,-1,-1,-1,-1,-1,-1,-1,-1,-1,-1,-1,-1,-1,-1,-1,-1,-1,-1,-1,-1,-1,-1,-1,-1,-1,-1,-1,-1,-1,-1,-1,-1,-1,-1,-1,-1,-1,-1,-1,-1,-1,-1,-1,-1,-1,-1,-1],"split_conditions":[-1.3837004E0,2.2920729E-1,-4.6542284E-1,-3.3565155E-1,-2.1678932E0,5.616001E-1,4.3863624E-1,-3.27714E0,1.3504612E0,5.616001E-1,1.1053208E0,-3.3565155E-1,5.934134E-1,5.616001E-1,-8.348441E-2,-6.3852906E-1,-2.7773693E0,-3.6781657E-1,-2.7347556E-1,-3.2374018E-1,-1.0637709E0,5.616001E-1,-1.259233E0,-1.4952555E0,6.0224247E-1,-2.4399729E-1,2.9299972E0,-3.3565155E-1,2.0906417E-1,-1.3630567E-1,-2.4399729E-1,1.3012185E0,1.6399707E0,-4.5977536E-1,-9.2917806E-1,-7.556396E-1,-1.5096588E0,-8.8057727E-1,-2.496604E0,1.0174791E0,-3.657109E-1,6.956639E0,2.9008854E1,1.6687298E0,-1.9687976E0,1.6931752E0,-1.1025649E0,-1.0774724E0,-4.5977536E-1,-4.5977536E-1,4.3863624E-1,-1.3503823E0,-7.630691E-1,2.6660728E0,9.81395E-2,-7.994528E-1,2.6660728E0,1.0581398E0,-6.654701E-1,-1.5034269E0,2.254393E-1,1.17478974E-1,-6.3252103E-1,-1.0720338E0,1.2796636E-1,-1.433348E0,-5.7378155E-1,-8.4336144E-1,1.3403782E0,4.6305885E0,3.457983E-1,1.3145799E1,6.6890235E0,4.0566387E0,9.0796643E-1,1.5241463E1,2.367479E0,2.5827732E0,8.347966E0,7.829964E0,1.7680914E1,-7.4336135E-1,4.5663863E-1,1.0012184E0,2.6479666E0,1.225168E0,-2.7373955E-1,4.9385715E0,1.3377877E0,1.5653782E0,-9.487816E-1,8.513709E0,3.539604E0,4.356639E0,-2.8243703E-1,-5.542017E-1,7.4421854E0,-1.5241482E0,2.6747897E-1,-1.8923192E-1,-8.9742035E-1,4.0110326E0,1.5798252E0,1.4059715E-1,1.3655597E0,-1.2033523E0,7.566387E-1,4.9762187E0,-1.1444119E0,-1.4837726E0,-1.1401427E0],"split_indices":[5,6,5,6,5,6,0,5,2,6,6,6,6,6,5,3,5,3,6,2,3,6,3,0,2,2,6,6,5,5,2,0,2,0,6,2,5,4,5,0,4,0,0,2,5,2,3,5,0,0,0,5,2,4,5,4,4,2,4,0,6,0,0,0,0,0,0,0,0,0,0,0,0,0,0,0,0,0,0,0,0,0,0,0,0,0,0,0,0,0,0,0,0,0,0,0,0,0,0,0,0,0,0,0,0,0,0,0,0,0,0],"split_type":[0,0,0,0,0,0,0,0,0,0,0,0,0,0,0,0,0,0,0,0,0,0,0,0,0,0,0,0,0,0,0,0,0,0,0,0,0,0,0,0,0,0,0,0,0,0,0,0,0,0,0,0,0,0,0,0,0,0,0,0,0,0,0,0,0,0,0,0,0,0,0,0,0,0,0,0,0,0,0,0,0,0,0,0,0,0,0,0,0,0,0,0,0,0,0,0,0,0,0,0,0,0,0,0,0,0,0,0,0,0,0],"sum_hessian":[2.38E3,2.05E2,2.175E3,1.28E2,7.7E1,5.11E2,1.664E3,7.7E1,5.1E1,2.1E1,5.6E1,3.79E2,1.32E2,6.07E2,1.057E3,5E0,7.2E1,2.5E1,2.6E1,1.1E1,1E1,4.5E1,1.1E1,1.16E2,2.63E2,7E1,6.2E1,4.5E2,1.57E2,8.5E1,9.72E2,3E0,2E0,8E0,6.4E1,1.3E1,1.2E1,2E1,6E0,1E0,1E1,2E0,8E0,1.9E1,2.6E1,4E0,7E0,1.18E2,1.45E2,1.4E1,5.6E1,4.9E1,1.3E1,2.07E2,2.43E2,8.7E1,7E1,7.5E1,1E1,7.45E2,2.27E2,1E0,1E0,4E0,4E0,6.1E1,3E0,2E0,1.1E1,7E0,5E0,5E0,1.5E1,2E0,4E0,9E0,1E0,1.5E1,4E0,6E0,2E1,2E0,2E0,3E0,4E0,2.3E1,9.5E1,1.7E1,1.28E2,1.1E1,3E0,4.3E1,1.3E1,2E0,4.7E1,5E0,8E0,2.06E2,1E0,1.41E2,1.02E2,1.3E1,7.4E1,4.6E1,2.4E1,7.3E1,2E0,3E0,7E0,1.29E2,9.8E1],"tree_param":{"num_deleted":"0","num_feature":"7","num_nodes":"111","size_leaf_vector":"1"}},{"base_weights":[6.546823E-2,9.474288E0,-1.731649E0,4.794403E0,2.4604643E1,2.0126326E-1,-3.169291E0,-2.9923398E0,9.699371E0,6.3077072E1,1.9007126E1,-1.6196378E0,5.424114E0,3.3711505E0,-3.264798E0,1.7545587E0,-3.2261844E0,7.67975E0,3.505299E1,2.7440357E1,2.3856258E1,2.7108503E1,2.993548E0,-3.5353174E0,-2.1630874E-1,1.1646176E1,3.4889884E0,-2.0666442E0,2.9436407E1,-3.4361448E0,-2.0944476E0,1.1963949E0,-3.5914922E-1,-1.3286872E0,-1.0089979E0,4.631691E0,1.4987654E1,1.1214867E1,1.0641255E0,1.9239832E0,9.328142E0,3.7769073E1,1.5443916E1,-5.4112625E-1,4.6963477E0,-1.0658917E0,-1.4818472E0,1.5966047E0,-1.5054225E0,1.7252504E1,6.2245903E0,-7.583676E-1,4.6762857E0,-3.1964266E0,1.8393636E0,1.3986539E1,-7.401555E-1,-3.5538933E0,-3.069941E0,-3.2612207E0,-6.526107E-1,2.147689E-1,-5.376429E-1,-8.1474555E-1,9.725442E-2,2.9901714E0,9.581937E-1,7.3144016E0,3.6793625E0,1.2258725E1,-1.7954408E-1,-2.874297E-1,5.260227E0,3.066302E-1,-6.92632E-1,1.536083E0,-4.4015554E-1,-7.443103E-1,2.2735713E-1,-4.3081233E-1,7.728881E-1,-9.1426414E-1,-3.058926E-1,2.345233E0,7.2322135E0,6.5852523E0,5.5543697E-1,1.2667263E0,-4.922954E-1,3.3209703E0,9.716411E-1,-1.025474E0,-1.1346159E-1,-4.4146016E-1,1.0300522E0,-1.1078037E0,-1.0216509E0,-9.8677635E-1,-7.131591E-1,-1.0231426E0,-9.313751E-2,2.0740237E0,-3.3458707E-1],"categories":[],"categories_nodes":[],"categories_segments":[],"categories_sizes":[],"default_left":[0,0,0,0,0,0,0,0,0,0,0,0,0,0,0,0,0,0,0,0,0,0,0,0,0,0,0,0,0,0,0,0,0,0,0,0,0,0,0,0,0,0,0,0,0,0,0,0,0,0,0,0,0,0,0,0,0,0,0,0,0,0,0,0,0,0,0,0,0,0,0,0,0,0,0,0,0,0,0,0,0,0,0,0,0,0,0,0,0,0,0,0,0,0,0,0,0,0,0,0,0,0,0],"id":1,"left_children":[1,3,5,7,9,11,13,15,17,19,21,23,25,27,29,31,33,35,37,39,-1,41,43,45,47,49,51,53,55,57,59,-1,61,63,-1,65,67,-1,-1,-1,-1,69,71,73,75,-1,77,79,81,83,85,87,89,91,93,-1,-1,95,97,99,101,-1,-1,-1,-1,-1,-1,-1,-1,-1,-1,-1,-1,-1,-1,-1,-1,-1,-1,-1,-1,-1,-1,-1,-1,-1,-1,-1,-1,-1,-1,-1,-1,-1,-1,-1,-1,-1,-1,-1,-1,-1,-1],"loss_changes":[4.0276145E4,2.6930812E4,5.5583096E3,1.1219785E4,1.8182594E4,8.130576E3,7.274873E2,1.3220459E2,8.947648E3,4.263949E3,1.0297416E4,1.7036359E3,2.620311E3,2.470372E3,2.1960938E2,2.975712E1,2.3895874E1,3.6727686E3,8.216738E2,1.846936E2,0E0,6.0073086E3,1.7106888E2,4.4509277E0,8.6010144E2,1.4731602E3,8.6083496E2,7.207347E1,1.7598513E3,3.1563477E1,2.4516925E2,0E0,7.445122E0,2.1515127E1,0E0,8.886821E2,9.5439746E2,0E0,0E0,0E0,0E0,3.2289219E3,9.424414E2,2.999213E1,5.715747E1,0E0,1.0831803E1,4.5827032E2,1.5795648E2,1.4284463E3,1.8850029E3,1.7398181E2,1.186511E3,6.208832E0,2.6164705E1,0E0,0E0,2.6445312E0,2.9707031E1,3.4614807E1,2.4225352E2,0E0,0E0,0E0,0E0,0E0,0E0,0E0,0E0,0E0,0E0,0E0,0E0,0E0,0E0,0E0,0E0,0E0,0E0,0E0,0E0,0E0,0E0,0E0,0E0,0E0,0E0,0E0,0E0,0E0,0E0,0E0,0E0,0E0,0E0,0E0,0E0,0E0,0E0,0E0,0E0,0E0,0E0],"parents":[2147483647,0,0,1,1,2,2,3,3,4,4,5,5,6,6,7,7,8,8,9,9,10,10,11,11,12,12,13,13,14,14,15,15,16,16,17,17,18,18,19,19,21,21,22,22,23,23,24,24,25,25,26,26,27,27,28,28,29,29,30,30,32,32,33,33,35,35,36,36,41,41,42,42,43,43,44,44,46,46,47,47,48,48,49,49,50,50,51,51,52,52,53,53,54,54,57,57,58,58,59,59,60,60],"right_children":[2,4,6,8,10,12,14,16,18,20,22,24,26,28,30,32,34,36,38,40,-1,42,44,46,48,50,52,54,56,58,60,-1,62,64,-1,66,68,-1,-1,-1,-1,70,72,74,76,-1,78,80,82,84,86,88,90,92,94,-1,-1,96,98,100,102,-1,-1,-1,-1,-1,-1,-1,-1,-1,-1,-1,-1,-1,-1,-1,-1,-1,-1,-1,-1,-1,-1,-1,-1,-1,-1,-1,-1,-1,-1,-1,-1,-1,-1,-1,-1,-1,-1,-1,-1,-1,-1],"split_conditions":[-9.895724E-1,5.616001E-1,4.3863624E-1,-3.3565155E-1,-2.1678932E0,5.616001E-1,-8.96932E-1,-3.27714E0,1.7832874E0,-8.796984E-1,1.1053208E0,-3.3565155E-1,-5.48447E-1,5.909078E-1,4.543722E-1,-7.972114E-1,-2.7773693E0,1.4631015E0,-5.4602027E-1,-8.069564E-1,2.3856258E1,-1.3837004E0,-1.2823602E0,2.6660728E0,-3.7196982E-1,5.909078E-1,-4.469894E-1,3.0417043E-1,6.218946E-1,5.616001E-1,-2.0023036E-1,1.1963949E0,1.6399707E0,-4.5977536E-1,-1.0089979E0,-1.0563561E0,-2.3426096E0,1.1214867E1,1.0641255E0,1.9239832E0,9.328142E0,4.3863624E-1,-6.625237E-1,-7.070883E-1,4.3863624E-1,-1.0658917E0,1.2517213E0,-2.4399729E-1,-3.8899165E-1,5.4550695E-1,-1.541907E0,3.0417043E-1,-1.9653071E-1,5.616001E-1,1.7229228E-1,1.3986539E1,-7.401555E-1,-2.8148758E-1,-4.6886235E-1,1.1117598E0,4.7138807E-1,2.147689E-1,-5.376429E-1,-8.1474555E-1,9.725442E-2,2.9901714E0,9.581937E-1,7.3144016E0,3.6793625E0,1.2258725E1,-1.7954408E-1,-2.874297E-1,5.260227E0,3.066302E-1,-6.92632E-1,1.536083E0,-4.4015554E-1,-7.443103E-1,2.2735713E-1,-4.3081233E-1,7.728881E-1,-9.1426414E-1,-3.058926E-1,2.345233E0,7.2322135E0,6.5852523E0,5.5543697E-1,1.2667263E0,-4.922954E-1,3.3209703E0,9.716411E-1,-1.025474E0,-1.1346159E-1,-4.4146016E-1,1.0300522E0,-1.1078037E0,-1.0216509E0,-9.8677635E-1,-7.131591E-1,-1.0231426E0,-9.313751E-2,2.0740237E0,-3.3458707E-1],"split_indices":[5,6,0,6,5,6,5,5,2,3,6,6,5,6,2,3,5,2,3,4,0,5,3,4,5,6,2,1,2,6,6,0,2,0,0,4,5,0,0,0,0,0,2,4,0,0,2,2,2,2,3,1,4,6,2,0,0,6,2,2,2,0,0,0,0,0,0,0,0,0,0,0,0,0,0,0,0,0,0,0,0,0,0,0,0,0,0,0,0,0,0,0,0,0,0,0,0,0,0,0,0,0,0],"split_type":[0,0,0,0,0,0,0,0,0,0,0,0,0,0,0,0,0,0,0,0,0,0,0,0,0,0,0,0,0,0,0,0,0,0,0,0,0,0,0,0,0,0,0,0,0,0,0,0,0,0,0,0,0,0,0,0,0,0,0,0,0,0,0,0,0,0,0,0,0,0,0,0,0,0,0,0,0,0,0,0,0,0,0,0,0,0,0,0,0,0,0,0,0,0,0,0,0,0,0,0,0,0,0],"sum_hessian":[2.38E3,3.81E2,1.999E3,2.92E2,8.9E1,8.53E2,1.146E3,1.13E2,1.79E2,1E1,7.9E1,6.33E2,2.2E2,1.6E1,1.13E3,5E0,1.08E2,1.67E2,1.2E1,4E0,6E0,5.2E1,2.7E1,2.67E2,3.66E2,5.1E1,1.69E2,1.4E1,2E0,9.84E2,1.46E2,2E0,3E0,8E0,1E2,1.19E2,4.8E1,1.1E1,1E0,1E0,3E0,2.6E1,2.6E1,9E0,1.8E1,2.64E2,3E0,1.52E2,2.14E2,2.4E1,2.7E1,3.7E1,1.32E2,1.1E1,3E0,1E0,1E0,7.38E2,2.46E2,8E1,6.6E1,2E0,1E0,4E0,4E0,2.4E1,9.5E1,9E0,3.9E1,2.4E1,2E0,3E0,2.3E1,5E0,4E0,1.7E1,1E0,2E0,1E0,3.7E1,1.15E2,5E1,1.64E2,1.1E1,1.3E1,5E0,2.2E1,5E0,3.2E1,2.3E1,1.09E2,1E1,1E0,1E0,2E0,3.69E2,3.69E2,1.84E2,6.2E1,7.6E1,4E0,3E0,6.3E1],"tree_param":{"num_deleted":"0","num_feature":"7","num_nodes":"103","size_leaf_vector":"1"}},{"base_weights":[9.120889E-2,9.8237915E0,-8.3020806E-1,2.354238E0,2.2839222E1,1.7440993E0,-1.7911922E0,-1.9357661E0,8.39544E0,4.0226395E1,1.6221676E1,2.1341883E-1,6.37634E0,-2.030063E0,7.0835614E-1,1.373778E0,-2.181266E0,3.051069E0,1.3081735E1,4.163315E-1,4.219749E1,1.9511795E1,2.531918E0,-7.4993485E-1,1.4629221E0,1.0583442E1,1.3330387E0,-1.1203461E0,-2.4047601E0,3.803095E0,-2.1417243E0,2.7095914E0,-8.6523247E-1,-1.0098023E0,-2.3099108E0,6.0252423E0,-6.1536694E-1,-1.5952358E0,1.4836587E1,4.400089E1,1.4604528E0,9.155175E0,3.0911972E1,3.7330538E-1,1.6437944E0,7.211216E-1,6.239898E0,4.476438E0,1.3610096E1,2.0160553E-1,1.9385567E1,-1.6797507E0,1.097776E0,-2.1853423E0,-7.737435E-1,8.9195595E0,1.592004E0,3.410095E-1,-2.2030454E0,1.9008087E-1,9.57116E-1,6.764181E-2,-4.5699644E-1,1.473534E-1,-6.926467E-1,-7.124619E-1,-2.176562E-1,3.1442015E0,2.4499759E-1,-1.1945853E0,3.9699945E-1,1.7937957E-1,-7.576807E-1,7.0796747E0,2.642861E0,1.4017781E1,4.440099E0,3.5938823E0,-2.6003993E0,1.966681E0,1.0877178E1,-2.656277E-1,3.9168876E-1,4.9440834E-1,-5.256126E-1,2.8708532E0,6.79599E-1,1.6350683E0,-1.6365639E0,5.018988E0,1.9842758E0,-1.4046435E-1,2.0598614E0,4.546147E-1,7.4511504E0,-7.534784E-1,-3.2671836E-1,1.2723105E0,-1.0810721E0,-7.7244014E-1,-5.9310573E-1,1.7712053E0,5.0356145E0,1.860149E-1,1.9122808E0,-5.4187256E-1,-7.5887495E-1],"categories":[],"categories_nodes":[],"categories_segments":[],"categories_sizes":[],"default_left":[0,0,0,0,0,0,0,0,0,0,0,0,0,0,0,0,0,0,0,0,0,0,0,0,0,0,0,0,0,0,0,0,0,0,0,0,0,0,0,0,0,0,0,0,0,0,0,0,0,0,0,0,0,0,0,0,0,0,0,0,0,0,0,0,0,0,0,0,0,0,0,0,0,0,0,0,0,0,0,0,0,0,0,0,0,0,0,0,0,0,0,0,0,0,0,0,0,0,0,0,0,0,0,0,0,0,0],"id":2,"left_children":[1,3,5,7,9,11,13,15,17,19,21,23,25,27,29,31,33,35,37,-1,39,41,43,-1,45,47,49,51,53,55,57,59,61,63,65,67,69,71,73,75,-1,77,79,81,-1,83,85,87,89,91,93,95,97,99,-1,101,103,-1,105,-1,-1,-1,-1,-1,-1,-1,-1,-1,-1,-1,-1,-1,-1,-1,-1,-1,-1,-1,-1,-1,-1,-1,-1,-1,-1,-1,-1,-1,-1,-1,-1,-1,-1,-1,-1,-1,-1,-1,-1,-1,-1,-1,-1,-1,-1,-1,-1],"loss_changes":[2.1360408E4,1.9973441E4,5.3862617E3,3.4372666E3,7.976992E3,4.1962036E3,9.4779297E2,6.637103E1,1.3375786E3,1.4725332E3,2.4728926E3,1.515666E3,3.1048926E3,4.90542E2,1.2341606E3,2.0289825E1,8.668762E0,2.9813232E2,7.7058887E2,0E0,1.0648672E3,5.0300254E3,7.430198E1,0E0,1.0798306E3,1.4177773E3,1.3850074E3,5.279551E2,3.354492E1,7.43769E2,1.717987E1,1.9710655E0,2.4968102E0,1.8682266E1,4.9671326E0,3.3953796E2,9.011772E1,9.671938E0,1.1651904E3,7.407539E2,0E0,1.3623479E3,2.496338E3,1.0544397E1,0E0,6.126633E2,5.209066E2,3.0052948E2,1.046126E3,2.933802E2,3.5204663E2,1.6383624E2,1.286153E3,3.2230957E1,0E0,3.752932E2,2.1915851E2,0E0,4.7601013E0,0E0,0E0,0E0,0E0,0E0,0E0,0E0,0E0,0E0,0E0,0E0,0E0,0E0,0E0,0E0,0E0,0E0,0E0,0E0,0E0,0E0,0E0,0E0,0E0,0E0,0E0,0E0,0E0,0E0,0E0,0E0,0E0,0E0,0E0,0E0,0E0,0E0,0E0,0E0,0E0,0E0,0E0,0E0,0E0,0E0,0E0,0E0,0E0],"parents":[2147483647,0,0,1,1,2,2,3,3,4,4,5,5,6,6,7,7,8,8,9,9,10,10,11,11,12,12,13,13,14,14,15,15,16,16,17,17,18,18,20,20,21,21,22,22,24,24,25,25,26,26,27,27,28,28,29,29,30,30,31,31,32,32,33,33,34,34,35,35,36,36,37,37,38,38,39,39,41,41,42,42,43,43,45,45,46,46,47,47,48,48,49,49,50,50,51,51,52,52,53,53,55,55,56,56,58,58],"right_children":[2,4,6,8,10,12,14,16,18,20,22,24,26,28,30,32,34,36,38,-1,40,42,44,-1,46,48,50,52,54,56,58,60,62,64,66,68,70,72,74,76,-1,78,80,82,-1,84,86,88,90,92,94,96,98,100,-1,102,104,-1,106,-1,-1,-1,-1,-1,-1,-1,-1,-1,-1,-1,-1,-1,-1,-1,-1,-1,-1,-1,-1,-1,-1,-1,-1,-1,-1,-1,-1,-1,-1,-1,-1,-1,-1,-1,-1,-1,-1,-1,-1,-1,-1,-1,-1,-1,-1,-1,-1],"split_conditions":[-1.3837004E0,2.799024E-1,-3.7196982E-1,-3.3565155E-1,-2.1678932E0,5.616001E-1,2.9299972E0,-3.27714E0,1.3504612E0,-3.2374018E-1,1.1053208E0,-3.3565155E-1,5.934134E-1,1.4811656E-1,4.3863624E-1,-6.3852906E-1,-2.7773693E0,3.0417043E-1,-1.0716728E0,4.163315E-1,9.425504E-2,5.8785546E-1,-1.1025649E0,-7.4993485E-1,1.4367388E0,3.1129512E-1,2.9384563E0,5.616001E-1,6.733496E-1,2.0906417E-1,-9.490188E-1,1.5738244E0,1.6399707E0,3.0417043E-1,-9.2917806E-1,-1.5096588E0,-5.1043427E-1,1.5412307E0,-6.745983E-1,1.1053208E0,1.4604528E0,-1.08841784E-1,-1.9687976E0,-1.2823602E0,1.6437944E0,4.3863624E-1,-1.0312877E0,9.318818E-1,-6.828027E-1,-8.258124E-2,-4.5977536E-1,-3.3565155E-1,5.934134E-1,-3.3565155E-1,-7.737435E-1,8.974228E-2,-1.3047414E0,3.410095E-1,-1.541907E0,1.9008087E-1,9.57116E-1,6.764181E-2,-4.5699644E-1,1.473534E-1,-6.926467E-1,-7.124619E-1,-2.176562E-1,3.1442015E0,2.4499759E-1,-1.1945853E0,3.9699945E-1,1.7937957E-1,-7.576807E-1,7.0796747E0,2.642861E0,1.4017781E1,4.440099E0,3.5938823E0,-2.6003993E0,1.966681E0,1.0877178E1,-2.656277E-1,3.9168876E-1,4.9440834E-1,-5.256126E-1,2.8708532E0,6.79599E-1,1.6350683E0,-1.6365639E0,5.018988E0,1.9842758E0,-1.4046435E-1,2.0598614E0,4.546147E-1,7.4511504E0,-7.534784E-1,-3.2671836E-1,1.2723105E0,-1.0810721E0,-7.7244014E-1,-5.9310573E-1,1.7712053E0,5.0356145E0,1.860149E-1,1.9122808E0,-5.4187256E-1,-7.5887495E-1],"split_indices":[5,6,5,6,5,6,6,5,2,2,6,6,6,5,0,3,5,1,4,0,4,6,3,0,2,2,6,6,5,5,1,2,2,1,6,5,3,2,4,6,0,3,5,3,0,0,5,3,5,3,0,6,6,6,0,5,3,0,3,0,0,0,0,0,0,0,0,0,0,0,0,0,0,0,0,0,0,0,0,0,0,0,0,0,0,0,0,0,0,0,0,0,0,0,0,0,0,0,0,0,0,0,0,0,0,0,0],"split_type":[0,0,0,0,0,0,0,0,0,0,0,0,0,0,0,0,0,0,0,0,0,0,0,0,0,0,0,0,0,0,0,0,0,0,0,0,0,0,0,0,0,0,0,0,0,0,0,0,0,0,0,0,0,0,0,0,0,0,0,0,0,0,0,0,0,0,0,0,0,0,0,0,0,0,0,0,0,0,0,0,0,0,0,0,0,0,0,0,0,0,0,0,0,0,0,0,0,0,0,0,0,0,0,0,0,0,0],"sum_hessian":[2.38E3,2.05E2,2.175E3,1.31E2,7.4E1,5.91E2,1.584E3,7.7E1,5.4E1,1.9E1,5.5E1,4.45E2,1.46E2,1.446E3,1.38E2,5E0,7.2E1,2.6E1,2.8E1,1E0,1.8E1,4.4E1,1.1E1,1.4E2,3.05E2,7.9E1,6.7E1,4.23E2,1.023E3,6.6E1,7.2E1,3E0,2E0,8E0,6.4E1,1.4E1,1.2E1,3E0,2.5E1,1.7E1,1E0,2.4E1,2E1,7E0,4E0,2.65E2,4E1,2.7E1,5.2E1,6.4E1,3E0,3.38E2,8.5E1,4.59E2,5.64E2,1.9E1,4.7E1,1E0,7.1E1,1E0,2E0,1E0,1E0,4E0,4E0,6.1E1,3E0,7E0,7E0,4E0,8E0,1E0,2E0,9E0,1.6E1,1.5E1,2E0,2.1E1,3E0,4E0,1.6E1,3E0,4E0,1.93E2,7.2E1,2.1E1,1.9E1,2.5E1,2E0,3.5E1,1.7E1,5.9E1,5E0,1E0,2E0,1.39E2,1.99E2,5.1E1,3.4E1,1.56E2,3.03E2,1.5E1,4E0,4E1,7E0,3.5E1,3.6E1],"tree_param":{"num_deleted":"0","num_feature":"7","num_nodes":"107","size_leaf_vector":"1"}},{"base_weights":[9.3864545E-2,-2.2907965E-1,1.5468047E1,2.741878E0,-1.0806061E0,2.2534046E0,2.3068375E1,9.455275E-1,9.748893E0,-1.3585569E-1,-1.6908841E0,5.3014283E0,4.1510198E-1,2.6924198E1,6.002096E0,-1.6536312E0,2.4229896E0,2.8559427E0,1.6587957E1,-9.2768025E-1,2.1966214E0,-1.7016197E0,8.427436E-1,2.8854666E0,-6.920357E-1,1.7785698E1,4.4120296E1,2.1593928E0,4.3587475E0,1.4604288E-1,-1.6856291E0,6.7791386E0,1.2760171E0,-1.2610276E-1,1.4524493E1,3.5109657E1,1.031064E1,-1.7290231E0,-3.136938E-1,1.32971E0,6.886183E0,-1.3615273E0,-1.788492E0,2.030581E0,-2.1380277E0,1.9561457E1,2.0040553E0,5.2772274E1,3.6328719E0,1.6843343E-1,8.4540176E-1,-3.5051596E-1,-5.298091E-1,3.7954886E0,7.442287E-1,-6.9283473E-1,6.3072836E-1,4.7143754E-1,-5.248374E0,8.107896E0,1.0559074E0,1.1400522E1,6.0697176E-2,1.5401851E0,5.423504E0,-5.229942E-1,-1.8547034E-2,5.7185173E-1,-1.9756916E-1,5.3062695E-1,-1.0704939E0,5.468475E0,1.6627316E-1,-4.5061123E-1,2.0647638E0,2.0144014E-1,-5.384735E-1,-3.9018147E-2,-1.8383851E0,7.1350875E0,3.4015381E0,2.2449567E0,1.8100037E1],"categories":[],"categories_nodes":[],"categories_segments":[],"categories_sizes":[],"default_left":[0,0,0,0,0,0,0,0,0,0,0,0,0,0,0,0,0,0,0,0,0,0,0,0,0,0,0,0,0,0,0,0,0,0,0,0,0,0,0,0,0,0,0,0,0,0,0,0,0,0,0,0,0,0,0,0,0,0,0,0,0,0,0,0,0,0,0,0,0,0,0,0,0,0,0,0,0,0,0,0,0,0,0],"id":3,"left_children":[1,3,5,7,9,11,13,15,17,19,21,-1,23,25,27,29,31,33,35,37,39,41,-1,-1,43,45,47,49,-1,-1,51,53,55,57,59,61,63,65,67,69,71,73,75,-1,77,79,-1,81,-1,-1,-1,-1,-1,-1,-1,-1,-1,-1,-1,-1,-1,-1,-1,-1,-1,-1,-1,-1,-1,-1,-1,-1,-1,-1,-1,-1,-1,-1,-1,-1,-1,-1,-1],"loss_changes":[1.1825216E4,5.9051E3,4.8693613E3,6.536051E3,1.0456509E3,5.311814E2,1.8783398E3,1.5976724E3,4.9496084E3,1.3188864E3,5.801831E1,0E0,1.900603E2,3.1439512E3,1.9799461E2,1.1162506E1,1.3153914E3,1.8808237E3,5.800126E3,2.617009E2,7.266871E2,3.0063965E1,0E0,0E0,1.9786787E2,2.2429883E2,1.5766006E3,4.732422E0,0E0,0E0,4.133026E0,1.3569336E3,6.300626E2,1.3247903E3,1.4182568E3,1.3047266E3,1.5558379E3,5.395874E0,2.3322165E2,3.3748224E2,2.0007806E3,2.7444745E2,1.4991455E1,0E0,1.19377495E2,2.5111377E2,0E0,1.6031465E3,0E0,0E0,0E0,0E0,0E0,0E0,0E0,0E0,0E0,0E0,0E0,0E0,0E0,0E0,0E0,0E0,0E0,0E0,0E0,0E0,0E0,0E0,0E0,0E0,0E0,0E0,0E0,0E0,0E0,0E0,0E0,0E0,0E0,0E0,0E0],"parents":[2147483647,0,0,1,1,2,2,3,3,4,4,5,5,6,6,7,7,8,8,9,9,10,10,12,12,13,13,14,14,15,15,16,16,17,17,18,18,19,19,20,20,21,21,24,24,25,25,26,26,27,27,30,30,31,31,32,32,33,33,34,34,35,35,36,36,37,37,38,38,39,39,40,40,41,41,42,42,44,44,45,45,47,47],"right_children":[2,4,6,8,10,12,14,16,18,20,22,-1,24,26,28,30,32,34,36,38,40,42,-1,-1,44,46,48,50,-1,-1,52,54,56,58,60,62,64,66,68,70,72,74,76,-1,78,80,-1,82,-1,-1,-1,-1,-1,-1,-1,-1,-1,-1,-1,-1,-1,-1,-1,-1,-1,-1,-1,-1,-1,-1,-1,-1,-1,-1,-1,-1,-1,-1,-1,-1,-1,-1,-1],"split_conditions":[1.6931752E0,-6.828027E-1,-2.7394676E-1,5.8785546E-1,4.3863624E-1,-1.0563561E0,1.1053208E0,-3.3565155E-1,-5.181433E-1,5.616001E-1,1.1462709E0,5.3014283E0,-1.0053561E0,5.8785546E-1,1.8767548E0,-3.27714E0,-1.4649638E0,7.481517E-2,-1.4080794E0,-3.3565155E-1,1.193356E0,-6.654701E-1,8.427436E-1,2.8854666E0,3.0417043E-1,2.963076E-1,-1.6691063E-1,-1.259233E0,4.3587475E0,1.4604288E-1,-2.0622506E0,-8.8057727E-1,-2.0876727E-1,-4.707658E-2,2.683397E-1,4.3863624E-1,6.765371E-1,2.6660728E0,-8.1740516E-1,6.274235E-1,1.2517213E0,-6.676361E-1,-9.490188E-1,2.030581E0,-2.3426096E0,-1.7408534E0,2.0040553E0,1.7506936E0,3.6328719E0,1.6843343E-1,8.4540176E-1,-3.5051596E-1,-5.298091E-1,3.7954886E0,7.442287E-1,-6.9283473E-1,6.3072836E-1,4.7143754E-1,-5.248374E0,8.107896E0,1.0559074E0,1.1400522E1,6.0697176E-2,1.5401851E0,5.423504E0,-5.229942E-1,-1.8547034E-2,5.7185173E-1,-1.9756916E-1,5.3062695E-1,-1.0704939E0,5.468475E0,1.6627316E-1,-4.5061123E-1,2.0647638E0,2.0144014E-1,-5.384735E-1,-3.9018147E-2,-1.8383851E0,7.1350875E0,3.4015381E0,2.2449567E0,1.8100037E1],"split_indices":[2,5,6,6,0,4,6,6,3,6,2,0,3,6,2,5,5,4,5,6,2,4,0,0,1,6,4,3,0,0,5,4,2,4,4,0,2,4,4,3,2,4,1,0,5,5,0,2,0,0,0,0,0,0,0,0,0,0,0,0,0,0,0,0,0,0,0,0,0,0,0,0,0,0,0,0,0,0,0,0,0,0,0],"split_type":[0,0,0,0,0,0,0,0,0,0,0,0,0,0,0,0,0,0,0,0,0,0,0,0,0,0,0,0,0,0,0,0,0,0,0,0,0,0,0,0,0,0,0,0,0,0,0,0,0,0,0,0,0,0,0,0,0,0,0,0,0,0,0,0,0,0,0,0,0,0,0,0,0,0,0,0,0,0,0,0,0,0,0],"sum_hessian":[2.38E3,2.332E3,4.8E1,5.19E2,1.813E3,1.8E1,3E1,4.14E2,1.05E2,7.12E2,1.101E3,1E0,1.7E1,2.4E1,6E0,1.5E2,2.64E2,5.3E1,5.2E1,5.32E2,1.8E2,1.099E3,2E0,1E0,1.6E1,1.7E1,7E0,5E0,1E0,2E0,1.48E2,5.4E1,2.1E2,4.3E1,1E1,1.2E1,4E1,2.3E2,3.02E2,1.53E2,2.7E1,2.27E2,8.72E2,2E0,1.4E1,1.4E1,3E0,5E0,2E0,2E0,3E0,2.2E1,1.26E2,2.2E1,3.2E1,3.9E1,1.71E2,4E1,3E0,4E0,6E0,1.1E1,1E0,2.5E1,1.5E1,2.28E2,2E0,4E1,2.62E2,1.41E2,1.2E1,9E0,1.8E1,2.24E2,3E0,2E0,8.7E2,1E1,4E0,8E0,6E0,1E0,4E0],"tree_param":{"num_deleted":"0","num_feature":"7","num_nodes":"83","size_leaf_vector":"1"}},{"base_weights":[1.00914694E-1,-1.4595255E-1,1.1852759E1,1.9703821E0,-7.5253916E-1,2.0163343E0,1.749919E1,6.7088926E-1,7.0394306E0,-8.970469E-1,1.4726304E0,4.5062137E0,4.5938483E-1,4.1119995E1,1.4452237E1,-1.1624047E0,1.7129892E0,1.1012426E1,2.0867667E-1,-3.6513053E-2,-1.1465155E0,6.3520604E-1,1.382362E1,2.4526463E0,-4.7541457E-1,3.3740478E0,1.51299515E1,2.2739998E1,7.2644053E0,3.894477E-1,-1.1858486E0,7.040197E0,1.1287376E0,8.515104E0,2.439565E1,1.0757906E0,-8.6927444E-1,-1.2866634E0,9.315135E-1,9.3092257E-1,-1.1905818E0,3.8803446E0,-7.1458733E-1,1.7962215E1,-1.6511931E0,5.414882E0,-1.6217797E0,1.6194614E1,1.00255375E1,9.156052E0,2.6797298E-1,1.3966234E-1,3.5589125E-2,-3.792271E-1,-2.5000602E-1,6.029755E-1,3.822409E0,5.3108597E-1,-6.984565E-1,3.2048151E0,-5.152997E-1,8.817458E0,8.8243216E-1,1.5006971E-1,1.4938922E0,1.9579566E-1,-4.79634E-1,1.3284284E0,9.082916E-2,-3.6457878E-1,2.262926E0,-6.5062433E-1,-3.426287E-1,3.2536995E-1,2.6594944E0,8.4956133E-1,-5.1730096E-1,5.9057846E0,1.4015336E0,1.9296914E0,5.0700575E-1,-2.8376829E-2,-1.3971727E0,5.7390842E0,2.102565E0,6.7185897E-1,3.0630023E0],"categories":[],"categories_nodes":[],"categories_segments":[],"categories_sizes":[],"default_left":[0,0,0,0,0,0,0,0,0,0,0,0,0,0,0,0,0,0,0,0,0,0,0,0,0,0,0,0,0,0,0,0,0,0,0,0,0,0,0,0,0,0,0,0,0,0,0,0,0,0,0,0,0,0,0,0,0,0,0,0,0,0,0,0,0,0,0,0,0,0,0,0,0,0,0,0,0,0,0,0,0,0,0,0,0,0,0],"id":4,"left_children":[1,3,5,7,9,11,13,15,17,19,21,-1,23,25,27,29,31,33,35,37,39,41,43,-1,45,-1,-1,47,49,51,53,55,57,59,61,63,-1,65,67,69,71,73,75,77,-1,79,81,83,-1,85,-1,-1,-1,-1,-1,-1,-1,-1,-1,-1,-1,-1,-1,-1,-1,-1,-1,-1,-1,-1,-1,-1,-1,-1,-1,-1,-1,-1,-1,-1,-1,-1,-1,-1,-1,-1,-1],"loss_changes":[6.909358E3,2.9964487E3,2.6862085E3,3.4206172E3,5.846205E2,3.7779572E2,1.6368389E3,7.9483856E2,2.8743896E3,3.6576636E2,1.1392942E3,0E0,1.3372089E2,2.674287E2,1.5623677E3,5.9554443E0,8.168473E2,2.0315571E3,1.10856384E2,4.6590717E2,1.22039185E2,4.6270087E2,6.5878735E2,0E0,1.2357307E2,0E0,0E0,3.6743066E2,1.967052E2,6.594926E-3,3.055954E0,7.2003064E2,5.363905E2,1.3048281E3,9.853716E2,6.940961E1,0E0,1.02732605E2,4.757282E2,4.0651282E2,5.889453E1,4.2239935E2,2.734606E2,4.548633E1,0E0,4.9855042E-1,6.9095406E1,1.3559644E2,0E0,7.190051E1,0E0,0E0,0E0,0E0,0E0,0E0,0E0,0E0,0E0,0E0,0E0,0E0,0E0,0E0,0E0,0E0,0E0,0E0,0E0,0E0,0E0,0E0,0E0,0E0,0E0,0E0,0E0,0E0,0E0,0E0,0E0,0E0,0E0,0E0,0E0,0E0,0E0],"parents":[2147483647,0,0,1,1,2,2,3,3,4,4,5,5,6,6,7,7,8,8,9,9,10,10,12,12,13,13,14,14,15,15,16,16,17,17,18,18,19,19,20,20,21,21,22,22,24,24,27,27,28,28,29,29,30,30,31,31,32,32,33,33,34,34,35,35,37,37,38,38,39,39,40,40,41,41,42,42,43,43,45,45,46,46,47,47,49,49],"right_children":[2,4,6,8,10,12,14,16,18,20,22,-1,24,26,28,30,32,34,36,38,40,42,44,-1,46,-1,-1,48,50,52,54,56,58,60,62,64,-1,66,68,70,72,74,76,78,-1,80,82,84,-1,86,-1,-1,-1,-1,-1,-1,-1,-1,-1,-1,-1,-1,-1,-1,-1,-1,-1,-1,-1,-1,-1,-1,-1,-1,-1,-1,-1,-1,-1,-1,-1,-1,-1,-1,-1,-1,-1],"split_conditions":[1.6931752E0,-6.828027E-1,-2.7394676E-1,5.8785546E-1,1.193356E0,-1.0563561E0,3.0417043E-1,-3.3565155E-1,1.1053208E0,-4.5977536E-1,2.9299972E0,4.5062137E0,-1.0053561E0,1.7506936E0,-2.1678932E0,-3.27714E0,-1.8836063E0,1.4448873E0,4.3863624E-1,-3.5197216E-1,-1.9500645E0,3.0417043E-1,2.8501055E0,2.4526463E0,3.0417043E-1,3.3740478E0,1.51299515E1,1.8767548E0,5.909078E-1,1.5738244E0,1.4367388E0,-3.5503447E-1,9.425504E-2,-2.2670002E-1,2.683397E-1,-7.214028E-1,-8.6927444E-1,3.0417043E-1,-7.994528E-1,6.765371E-1,-4.6542284E-1,-3.1308222E-1,-4.6542284E-1,1.3504612E0,-1.6511931E0,1.7832874E0,-2.3426096E0,1.80965E0,1.00255375E1,-1.1433829E0,2.6797298E-1,1.3966234E-1,3.5589125E-2,-3.792271E-1,-2.5000602E-1,6.029755E-1,3.822409E0,5.3108597E-1,-6.984565E-1,3.2048151E0,-5.152997E-1,8.817458E0,8.8243216E-1,1.5006971E-1,1.4938922E0,1.9579566E-1,-4.79634E-1,1.3284284E0,9.082916E-2,-3.6457878E-1,2.262926E0,-6.5062433E-1,-3.426287E-1,3.2536995E-1,2.6594944E0,8.4956133E-1,-5.1730096E-1,5.9057846E0,1.4015336E0,1.9296914E0,5.0700575E-1,-2.8376829E-2,-1.3971727E0,5.7390842E0,2.102565E0,6.7185897E-1,3.0630023E0],"split_indices":[2,5,6,6,2,4,1,6,6,0,6,0,3,2,5,5,5,2,0,2,3,1,4,0,1,0,0,2,6,2,2,3,4,4,4,5,0,1,4,2,5,3,5,2,0,2,5,2,0,4,0,0,0,0,0,0,0,0,0,0,0,0,0,0,0,0,0,0,0,0,0,0,0,0,0,0,0,0,0,0,0,0,0,0,0,0,0],"split_type":[0,0,0,0,0,0,0,0,0,0,0,0,0,0,0,0,0,0,0,0,0,0,0,0,0,0,0,0,0,0,0,0,0,0,0,0,0,0,0,0,0,0,0,0,0,0,0,0,0,0,0,0,0,0,0,0,0,0,0,0,0,0,0,0,0,0,0,0,0,0,0,0,0,0,0,0,0,0,0,0,0,0,0,0,0,0,0],"sum_hessian":[2.38E3,2.332E3,4.8E1,5.19E2,1.813E3,1.8E1,3E1,4.14E2,1.05E2,1.703E3,1.1E2,1E0,1.7E1,2E0,2.8E1,1.5E2,2.64E2,6.6E1,3.9E1,3.83E2,1.32E3,1.04E2,6E0,1E0,1.6E1,1E0,1E0,1.2E1,1.6E1,2E0,1.48E2,2.5E1,2.39E2,5.7E1,9E0,3.1E1,8E0,1.67E2,2.16E2,2.7E1,1.293E3,3E1,7.4E1,5E0,1E0,2E0,1.4E1,9E0,3E0,1.2E1,4E0,1E0,1E0,1.19E2,2.9E1,1.4E1,1.1E1,2.02E2,3.7E1,4.7E1,1E1,7E0,2E0,2.8E1,3E0,2.3E1,1.44E2,3.2E1,1.84E2,2.1E1,6E0,5.9E1,1.234E3,2E1,1E1,1.6E1,5.8E1,4E0,1E0,1E0,1E0,1E1,4E0,6E0,3E0,2E0,1E1],"tree_param":{"num_deleted":"0","num_feature":"7","num_nodes":"87","size_leaf_vector":"1"}},{"base_weights":[1.0269653E-1,-9.017284E-2,9.283545E0,-4.032168E-1,2.1252773E0,1.2661436E1,-6.557286E-2,8.171267E-1,-8.845908E-1,8.678203E-1,6.1219835E0,3.4951996E1,1.0322227E1,4.60265E0,-1.2271641E0,1.6993667E-1,7.5141144E0,-2.2049458E0,-7.9361707E-1,3.2617037E0,1.6687845E-1,2.4442077E0,1.4411939E1,2.8679404E0,1.2860459E1,2.3885663E-1,1.2052502E1,1.6402377E0,4.309549E-1,-2.6879125E0,7.098932E-1,-8.908329E-1,1.9477426E0,4.5507283E0,1.6765894E1,-1.4504502E0,-5.3100133E0,1.1221455E1,-8.368884E-1,-1.0250932E0,5.128191E0,1.01772E0,-2.1858118E0,8.597392E0,1.0338937E0,2.7742607E1,5.7649884E0,7.791716E-1,-1.589644E0,1.7667347E1,5.6341567E0,-8.675802E-1,-3.9706624E0,-1.5631625E-1,-6.8022555E-1,3.1733246E0,3.7008718E-1,-2.5102058E-1,1.9123322E0,1.5809543E-2,1.0041092E1,-9.576929E-1,2.9062977E-1,-7.40224E-1,-5.6101627E0,9.9968195E0,-7.903643E-1,-1.1073722E0,-2.4076988E-1,-5.8180306E-2,-6.198064E-1,2.797741E0,8.4471303E-1,-2.1902263E-1,6.838156E-1,-1.9148444E-1,-9.473571E-1,3.2524986E0,-1.403514E0,-4.9772006E-1,1.9037896E0,1.0755466E1,4.712079E0,9.14933E0,4.5494562E-1,-7.022979E-1,-1.6765901E-1,5.6958847E0,1.8188535E0,2.0740001E0,1.1642626E-1,1.7603381E-1,-4.1335946E-1,-1.4153309E0,-1.4733496E-1],"categories":[],"categories_nodes":[],"categories_segments":[],"categories_sizes":[],"default_left":[0,0,0,0,0,0,0,0,0,0,0,0,0,0,0,0,0,0,0,0,0,0,0,0,0,0,0,0,0,0,0,0,0,0,0,0,0,0,0,0,0,0,0,0,0,0,0,0,0,0,0,0,0,0,0,0,0,0,0,0,0,0,0,0,0,0,0,0,0,0,0,0,0,0,0,0,0,0,0,0,0,0,0,0,0,0,0,0,0,0,0,0,0,0,0],"id":5,"left_children":[1,3,5,7,9,11,13,15,17,19,21,23,25,27,29,31,33,35,37,39,41,43,45,-1,-1,47,49,-1,-1,51,-1,53,55,57,59,61,63,65,67,69,71,73,75,77,79,81,83,-1,85,87,89,91,93,-1,-1,-1,-1,-1,-1,-1,-1,-1,-1,-1,-1,-1,-1,-1,-1,-1,-1,-1,-1,-1,-1,-1,-1,-1,-1,-1,-1,-1,-1,-1,-1,-1,-1,-1,-1,-1,-1,-1,-1,-1,-1],"loss_changes":[4.216884E3,1.6188702E3,1.5482651E3,1.2020409E3,1.4471107E3,1.5163403E3,8.156415E1,2.5082385E3,1.7446277E2,3.7028778E2,2.0684873E3,1.9321729E2,5.903191E2,3.602066E-1,6.935039E1,9.993457E2,1.3219495E3,2.1251755E2,7.2374506E2,4.053194E2,3.4652838E2,4.1632938E2,2.2607266E3,0E0,0E0,3.00025E1,9.455625E2,0E0,0E0,1.7570404E1,0E0,1.678172E2,1.2071951E3,3.98341E2,3.348445E3,3.2756555E2,6.390084E2,1.618967E3,1.3125299E2,1.3442152E1,3.1348273E2,2.8171594E2,6.718082E1,3.1887103E2,5.970415E2,2.1765576E2,1.4248325E3,0E0,1.789609E0,1.1447266E2,9.797681E1,4.5191894E0,1.0681E1,0E0,0E0,0E0,0E0,0E0,0E0,0E0,0E0,0E0,0E0,0E0,0E0,0E0,0E0,0E0,0E0,0E0,0E0,0E0,0E0,0E0,0E0,0E0,0E0,0E0,0E0,0E0,0E0,0E0,0E0,0E0,0E0,0E0,0E0,0E0,0E0,0E0,0E0,0E0,0E0,0E0,0E0],"parents":[2147483647,0,0,1,1,2,2,3,3,4,4,5,5,6,6,7,7,8,8,9,9,10,10,11,11,12,12,13,13,14,14,15,15,16,16,17,17,18,18,19,19,20,20,21,21,22,22,25,25,26,26,29,29,31,31,32,32,33,33,34,34,35,35,36,36,37,37,38,38,39,39,40,40,41,41,42,42,43,43,44,44,45,45,46,46,48,48,49,49,50,50,51,51,52,52],"right_children":[2,4,6,8,10,12,14,16,18,20,22,24,26,28,30,32,34,36,38,40,42,44,46,-1,-1,48,50,-1,-1,52,-1,54,56,58,60,62,64,66,68,70,72,74,76,78,80,82,84,-1,86,88,90,92,94,-1,-1,-1,-1,-1,-1,-1,-1,-1,-1,-1,-1,-1,-1,-1,-1,-1,-1,-1,-1,-1,-1,-1,-1,-1,-1,-1,-1,-1,-1,-1,-1,-1,-1,-1,-1,-1,-1,-1,-1,-1,-1],"split_conditions":[1.6931752E0,1.193356E0,-4.8559117E-1,-4.5977536E-1,5.616001E-1,3.0417043E-1,3.0417043E-1,6.324396E-1,-9.1643524E-1,3.0417043E-1,-5.1043427E-1,1.7506936E0,-8.0931455E-1,1.7832874E0,-2.7394676E-1,2.799024E-1,5.8785546E-1,-3.408057E-2,-8.96932E-1,-8.0931455E-1,2.4483858E-1,-1.541907E0,3.0417043E-1,2.8679404E0,1.2860459E1,-3.27714E0,-2.1678932E0,1.6402377E0,4.309549E-1,-1.0444937E0,7.098932E-1,-2.2084098E-1,-1.4649638E0,-8.084011E-1,-6.584483E-1,9.47353E-1,5.616001E-1,-7.370807E-1,-8.357522E-1,-1.0312877E0,-2.7351254E-1,-3.3565155E-1,1.357651E0,2.8501055E0,1.5412307E0,-1.0180146E0,-4.9116158E-1,7.791716E-1,-8.601025E-1,1.1053208E0,5.909078E-1,1.7832874E0,1.7832874E0,-1.5631625E-1,-6.8022555E-1,3.1733246E0,3.7008718E-1,-2.5102058E-1,1.9123322E0,1.5809543E-2,1.0041092E1,-9.576929E-1,2.9062977E-1,-7.40224E-1,-5.6101627E0,9.9968195E0,-7.903643E-1,-1.1073722E0,-2.4076988E-1,-5.8180306E-2,-6.198064E-1,2.797741E0,8.4471303E-1,-2.1902263E-1,6.838156E-1,-1.9148444E-1,-9.473571E-1,3.2524986E0,-1.403514E0,-4.9772006E-1,1.9037896E0,1.0755466E1,4.712079E0,9.14933E0,4.5494562E-1,-7.022979E-1,-1.6765901E-1,5.6958847E0,1.8188535E0,2.0740001E0,1.1642626E-1,1.7603381E-1,-4.1335946E-1,-1.4153309E0,-1.4733496E-1],"split_indices":[2,2,3,0,6,1,1,2,5,1,3,2,6,2,6,6,6,4,5,6,4,3,1,0,0,5,5,0,0,6,0,6,5,6,3,2,6,3,5,5,6,6,2,4,2,5,3,0,3,6,6,2,2,0,0,0,0,0,0,0,0,0,0,0,0,0,0,0,0,0,0,0,0,0,0,0,0,0,0,0,0,0,0,0,0,0,0,0,0,0,0,0,0,0,0],"split_type":[0,0,0,0,0,0,0,0,0,0,0,0,0,0,0,0,0,0,0,0,0,0,0,0,0,0,0,0,0,0,0,0,0,0,0,0,0,0,0,0,0,0,0,0,0,0,0,0,0,0,0,0,0,0,0,0,0,0,0,0,0,0,0,0,0,0,0,0,0,0,0,0,0,0,0,0,0,0,0,0,0,0,0,0,0,0,0,0,0,0,0,0,0,0,0],"sum_hessian":[2.38E3,2.332E3,4.8E1,2.044E3,2.88E2,3.5E1,1.3E1,5.78E2,1.466E3,2.2E2,6.8E1,2E0,3.3E1,2E0,1.1E1,5.28E2,5E1,9.3E1,1.373E3,4.9E1,1.71E2,4.8E1,2E1,1E0,1E0,5E0,2.8E1,1E0,1E0,8E0,3E0,3.31E2,1.97E2,3.9E1,1.1E1,7.6E1,1.7E1,4E0,1.369E3,1.5E1,3.4E1,1.26E2,4.5E1,8E0,4E1,7E0,1.3E1,2E0,3E0,1.4E1,1.4E1,4E0,4E0,2.62E2,6.9E1,1.4E1,1.83E2,1E1,2.9E1,6E0,5E0,4.4E1,3.2E1,1.5E1,2E0,1E0,3E0,1.5E1,1.354E3,9E0,6E0,1.1E1,2.3E1,5.3E1,7.3E1,1.8E1,2.7E1,7E0,1E0,2.7E1,1.3E1,3E0,4E0,1E0,1.2E1,1E0,2E0,1.2E1,2E0,1.1E1,3E0,1E0,3E0,3E0,1E0],"tree_param":{"num_deleted":"0","num_feature":"7","num_nodes":"95","size_leaf_vector":"1"}},{"base_weights":[1.02213934E-1,-1.8670686E-1,3.860982E0,-8.475046E-1,2.8361073E-1,2.261533E0,9.54923E0,-4.042913E0,-7.537302E-1,-2.2263575E-1,1.8429773E0,-4.456552E-1,3.3775961E0,1.8896122E1,-3.002534E-1,-6.1781096E-1,-5.8198605E0,-1.2061204E0,-6.86152E-1,9.4361943E-1,-4.5048195E-1,5.09459E0,7.78524E-1,7.169182E-1,-6.322205E-1,4.8296857E0,2.2393745E-1,1.09455E1,1.3317895E1,2.1342366E0,-3.9144568E0,1.5123703E-1,-2.4869329E-1,-1.9472207E-1,-6.4660273E0,-7.48013E-1,-1.6135852E0,1.2828845E0,-7.133546E-1,-4.622839E-1,2.6683664E0,-6.7956448E-3,-6.8899226E-1,9.641285E0,5.3419894E-1,1.9322808E-1,4.576909E0,5.5113995E-1,-3.0247253E-1,-9.719225E-1,-1.14489585E-1,7.6641364E0,2.4775574E0,7.828852E0,-1.5396558E0,2.4206417E1,7.6711864E0,-6.74619E-1,4.236936E0,3.274572E-1,-1.4356587E0,9.734717E-2,-2.9290501E-2,-2.2295167E0,-5.8573043E-1,-2.8913176E-1,6.6676445E-2,-2.2669345E-1,-5.6483203E-1,1.2841148E-3,2.110339E0,3.1297155E-2,-2.2363591E-1,1.2466892E-1,-3.1991947E-1,1.8627561E0,3.845583E-1,-2.6534495E-1,1.5595639E-1,-2.5816736E-1,4.5569226E-2,2.1187097E-1,3.809395E0,7.5579417E-1,-9.997182E-1,-1.2368681E0,1.6446026E-1,4.0749965E0,3.0263996E-1,8.950549E-2,-1.8065935E-1,-3.3374095E-1,-1.9827555E-1,2.706153E-1,-1.331387E-1,1.4884392E0,3.9356406E0,-6.6041625E-1,1.626397E0,3.8484553E-1,3.2343495E0,-1.6634879E0,1.6455969E-1,1.254086E0,8.450363E0,2.859398E0,-3.2590267E-1,9.4634295E-2,-8.437429E-1,2.8277314E-1,1.6098495E0],"categories":[],"categories_nodes":[],"categories_segments":[],"categories_sizes":[],"default_left":[0,0,0,0,0,0,0,0,0,0,0,0,0,0,0,0,0,0,0,0,0,0,0,0,0,0,0,0,0,0,0,0,0,0,0,0,0,0,0,0,0,0,0,0,0,0,0,0,0,0,0,0,0,0,0,0,0,0,0,0,0,0,0,0,0,0,0,0,0,0,0,0,0,0,0,0,0,0,0,0,0,0,0,0,0,0,0,0,0,0,0,0,0,0,0,0,0,0,0,0,0,0,0,0,0,0,0,0,0,0,0],"id":6,"left_children":[1,3,5,7,9,11,13,15,17,19,21,23,25,27,29,31,33,35,37,39,41,43,45,47,49,51,53,-1,55,57,59,61,-1,-1,63,65,67,69,71,73,75,77,79,81,83,85,87,-1,89,91,93,95,97,99,101,103,105,107,109,-1,-1,-1,-1,-1,-1,-1,-1,-1,-1,-1,-1,-1,-1,-1,-1,-1,-1,-1,-1,-1,-1,-1,-1,-1,-1,-1,-1,-1,-1,-1,-1,-1,-1,-1,-1,-1,-1,-1,-1,-1,-1,-1,-1,-1,-1,-1,-1,-1,-1,-1,-1],"loss_changes":[2.586454E3,6.8769635E2,1.525075E3,2.7262854E2,1.02113544E3,4.0637183E2,3.41197E3,1.5464633E2,2.6534058E1,2.600402E2,1.0932311E3,9.129086E0,4.3396106E2,1.3782769E3,1.7553047E2,1.7493448E0,5.260327E1,2.0259216E1,4.2747925E1,3.8920596E2,8.655916E1,1.6121569E3,5.326786E2,7.407303E0,6.044322E0,4.143662E2,4.27825E2,0E0,7.980571E2,7.373247E1,4.0108063E1,1.6103551E-1,0E0,0E0,5.0871338E1,1.1937492E1,1.2434128E1,8.08638E1,2.0313538E1,4.764162E1,3.4551514E2,1.3312106E2,7.6881134E1,1.0561897E3,3.1542056E2,3.2247028E2,1.0146446E3,0E0,8.9999545E-1,1.826725E-1,5.4216213E0,3.6243457E2,5.21562E2,1.02125305E2,2.205011E2,2.7891406E2,2.0583698E2,1.3586916E1,2.0982567E1,0E0,0E0,0E0,0E0,0E0,0E0,0E0,0E0,0E0,0E0,0E0,0E0,0E0,0E0,0E0,0E0,0E0,0E0,0E0,0E0,0E0,0E0,0E0,0E0,0E0,0E0,0E0,0E0,0E0,0E0,0E0,0E0,0E0,0E0,0E0,0E0,0E0,0E0,0E0,0E0,0E0,0E0,0E0,0E0,0E0,0E0,0E0,0E0,0E0,0E0,0E0,0E0],"parents":[2147483647,0,0,1,1,2,2,3,3,4,4,5,5,6,6,7,7,8,8,9,9,10,10,11,11,12,12,13,13,14,14,15,15,16,16,17,17,18,18,19,19,20,20,21,21,22,22,23,23,24,24,25,25,26,26,28,28,29,29,30,30,31,31,34,34,35,35,36,36,37,37,38,38,39,39,40,40,41,41,42,42,43,43,44,44,45,45,46,46,48,48,49,49,50,50,51,51,52,52,53,53,54,54,55,55,56,56,57,57,58,58],"right_children":[2,4,6,8,10,12,14,16,18,20,22,24,26,28,30,32,34,36,38,40,42,44,46,48,50,52,54,-1,56,58,60,62,-1,-1,64,66,68,70,72,74,76,78,80,82,84,86,88,-1,90,92,94,96,98,100,102,104,106,108,110,-1,-1,-1,-1,-1,-1,-1,-1,-1,-1,-1,-1,-1,-1,-1,-1,-1,-1,-1,-1,-1,-1,-1,-1,-1,-1,-1,-1,-1,-1,-1,-1,-1,-1,-1,-1,-1,-1,-1,-1,-1,-1,-1,-1,-1,-1,-1,-1,-1,-1,-1,-1],"split_conditions":[1.4367388E0,-4.5796582E-1,5.8785546E-1,-1.1114676E0,5.616001E-1,-9.2917806E-1,1.1053208E0,-3.3565155E-1,-1.3630567E-1,-1.0098883E0,-5.9640557E-1,3.0417043E-1,-6.262538E-2,3.0417043E-1,-1.1114676E0,-5.8630633E-1,-1.5580959E0,-2.2084098E-1,-5.7209212E-2,-2.7394676E-1,-3.9928395E-1,-4.5977536E-1,1.193356E0,-2.7773693E0,-3.4018305E-1,-2.7347556E-1,3.0417043E-1,1.09455E1,-2.3426096E0,-1.2389407E0,-8.069564E-1,-4.5977536E-1,-2.4869329E-1,-1.9472207E-1,-6.535764E-1,-2.7351254E-1,-9.437387E-1,-6.723171E-2,-1.2745807E0,-4.5977536E-1,-2.7347556E-1,-3.3565155E-1,2.799024E-1,-5.8630633E-1,-3.4981218E-1,-9.1643524E-1,1.2435728E0,5.5113995E-1,1.4631015E0,-6.151106E-1,-1.8513599E-1,-2.7394676E-1,2.799024E-1,-1.4725254E0,1.5115129E0,-8.796984E-1,5.909078E-1,-5.4316837E-1,-8.069564E-1,3.274572E-1,-1.4356587E0,9.734717E-2,-2.9290501E-2,-2.2295167E0,-5.8573043E-1,-2.8913176E-1,6.6676445E-2,-2.2669345E-1,-5.6483203E-1,1.2841148E-3,2.110339E0,3.1297155E-2,-2.2363591E-1,1.2466892E-1,-3.1991947E-1,1.8627561E0,3.845583E-1,-2.6534495E-1,1.5595639E-1,-2.5816736E-1,4.5569226E-2,2.1187097E-1,3.809395E0,7.5579417E-1,-9.997182E-1,-1.2368681E0,1.6446026E-1,4.0749965E0,3.0263996E-1,8.950549E-2,-1.8065935E-1,-3.3374095E-1,-1.9827555E-1,2.706153E-1,-1.331387E-1,1.4884392E0,3.9356406E0,-6.6041625E-1,1.626397E0,3.8484553E-1,3.2343495E0,-1.6634879E0,1.6455969E-1,1.254086E0,8.450363E0,2.859398E0,-3.2590267E-1,9.4634295E-2,-8.437429E-1,2.8277314E-1,1.6098495E0],"split_indices":[2,2,6,5,6,6,6,6,5,5,4,1,4,1,5,3,3,6,5,6,4,0,2,5,4,6,1,0,5,3,4,0,0,0,2,6,3,5,4,0,6,6,6,3,3,5,2,0,2,4,4,6,6,3,2,3,6,4,4,0,0,0,0,0,0,0,0,0,0,0,0,0,0,0,0,0,0,0,0,0,0,0,0,0,0,0,0,0,0,0,0,0,0,0,0,0,0,0,0,0,0,0,0,0,0,0,0,0,0,0,0],"split_type":[0,0,0,0,0,0,0,0,0,0,0,0,0,0,0,0,0,0,0,0,0,0,0,0,0,0,0,0,0,0,0,0,0,0,0,0,0,0,0,0,0,0,0,0,0,0,0,0,0,0,0,0,0,0,0,0,0,0,0,0,0,0,0,0,0,0,0,0,0,0,0,0,0,0,0,0,0,0,0,0,0,0,0,0,0,0,0,0,0,0,0,0,0,0,0,0,0,0,0,0,0,0,0,0,0,0,0,0,0,0,0],"sum_hessian":[2.38E3,2.211E3,1.69E2,9.19E2,1.292E3,1.33E2,3.6E1,2.5E1,8.94E2,9.76E2,3.16E2,3.9E1,9.4E1,1.8E1,1.8E1,9E0,1.6E1,1.14E2,7.8E2,1.59E2,8.17E2,7.7E1,2.39E2,5E0,3.4E1,6.4E1,3E1,3E0,1.5E1,1.1E1,7E0,2E0,7E0,2E0,1.4E1,5.5E1,5.9E1,1E1,7.7E2,8.8E1,7.1E1,2.86E2,5.31E2,3.8E1,3.9E1,2.08E2,3.1E1,2E0,3E0,2E1,1.4E1,2.8E1,3.6E1,5E0,2.5E1,4E0,1.1E1,5E0,6E0,1E0,6E0,1E0,1E0,1.1E1,3E0,4.5E1,1E1,1.5E1,4.4E1,9E0,1E0,2.9E1,7.41E2,3.6E1,5.2E1,1.9E1,5.2E1,1.07E2,1.79E2,4.41E2,9E1,1E1,2.8E1,2.6E1,1.3E1,1.5E1,1.93E2,8E0,2.3E1,1E0,2E0,1.2E1,8E0,3E0,1.1E1,2E1,8E0,1.4E1,2.2E1,2E0,3E0,8E0,1.7E1,1E0,3E0,9E0,2E0,4E0,1E0,2E0,4E0],"tree_param":{"num_deleted":"0","num_feature":"7","num_nodes":"111","size_leaf_vector":"1"}},{"base_weights":[8.7644614E-2,-1.8821668E-2,6.3190546E0,1.2394369E0,-2.2145557E-1,1.5453174E0,1.0564564E1,5.681979E-1,4.1351566E0,-3.11819E-1,9.1412205E-1,-2.6604015E-1,4.9472733E0,5.337826E0,2.274177E1,-3.9508846E-1,1.4442351E0,-3.3552116E-1,1.20757E1,-1.9136119E-1,-2.0361543E0,5.4543195E0,3.2692295E-1,1.0071013E0,-8.0296695E-1,2.515068E0,1.8960462E0,7.0978527E0,2.0609543E0,9.703882E0,2.3551788E0,-2.5399756E0,-1.6979764E-1,3.7065542E0,4.2646238E-1,1.2739488E0,-6.0208006E0,1.912245E1,5.726223E0,-2.6162866E-1,3.2572124E0,-4.0541906E0,-6.2604505E-1,1.1295733E1,2.0790863E0,3.54343E-2,4.8770037E0,7.7572995E-1,-1.354149E0,-2.3876897E-1,2.768006E0,4.5697126E0,3.4420831E0,5.3022546E-1,1.6867992E0,-6.1420444E-3,1.0659726E0,-1.1374061E-1,-1.391288E0,-1.2941076E-1,3.102131E-1,2.7426708E0,2.3015478E-1,1.8007187E0,-1.2940338E-1,1.3651351E-2,2.958505E0,-3.0628607E0,5.302507E-1,6.504393E0,-5.860932E-1,4.1688967E-2,3.6664598E0,-1.4605083E-1,7.791686E-2,4.527122E0,5.0288254E-1,-9.5339006E-1,-1.5949672E0,-5.902046E-1,-1.2920839E-1,1.838602E0,4.3259706E0,-7.695585E-1,1.7288659E0,-1.4752203E-1,4.2604128E-1,-1.5907054E0,2.746154E0,4.8780712E-1,-2.6627266E-1,2.8364068E-1,-5.144143E-1,1.1709361E0,3.265784E-1,1.883221E0,-1.10672E-1,3.894005E-2,2.0939642E-1],"categories":[],"categories_nodes":[],"categories_segments":[],"categories_sizes":[],"default_left":[0,0,0,0,0,0,0,0,0,0,0,0,0,0,0,0,0,0,0,0,0,0,0,0,0,0,0,0,0,0,0,0,0,0,0,0,0,0,0,0,0,0,0,0,0,0,0,0,0,0,0,0,0,0,0,0,0,0,0,0,0,0,0,0,0,0,0,0,0,0,0,0,0,0,0,0,0,0,0,0,0,0,0,0,0,0,0,0,0,0,0,0,0,0,0,0,0,0,0],"id":7,"left_children":[1,3,5,7,9,11,13,15,17,19,21,23,25,27,29,31,33,35,37,39,41,43,45,-1,47,-1,49,51,53,-1,55,57,59,61,63,65,67,69,71,73,75,77,79,81,83,85,87,89,91,-1,93,95,-1,97,-1,-1,-1,-1,-1,-1,-1,-1,-1,-1,-1,-1,-1,-1,-1,-1,-1,-1,-1,-1,-1,-1,-1,-1,-1,-1,-1,-1,-1,-1,-1,-1,-1,-1,-1,-1,-1,-1,-1,-1,-1,-1,-1,-1,-1],"loss_changes":[1.5797579E3,5.974045E2,7.9435205E2,6.293594E2,2.0736151E2,1.2455935E2,1.2151968E3,2.2419742E2,2.1695278E3,3.880274E2,3.954508E2,2.9929897E1,5.749861E1,7.764978E1,1.098637E3,6.0938087E1,3.184705E2,3.7368164E2,8.748506E2,4.2467432E2,3.4463144E2,3.116895E2,1.7622467E2,0E0,1.2362397E1,0E0,1.3939375E1,5.8194214E1,3.51828E1,0E0,8.61129E0,5.263398E1,3.6973362E1,6.8001825E2,4.6654724E2,3.371369E2,3.116537E2,5.816653E2,4.7008438E2,2.014884E2,6.294681E2,3.8409973E1,1.828044E1,8.4817505E0,2.2008614E2,9.2675835E1,3.9682098E2,7.1004105E0,9.91283E0,0E0,3.376379E0,6.978487E1,0E0,3.1245947E-1,0E0,0E0,0E0,0E0,0E0,0E0,0E0,0E0,0E0,0E0,0E0,0E0,0E0,0E0,0E0,0E0,0E0,0E0,0E0,0E0,0E0,0E0,0E0,0E0,0E0,0E0,0E0,0E0,0E0,0E0,0E0,0E0,0E0,0E0,0E0,0E0,0E0,0E0,0E0,0E0,0E0,0E0,0E0,0E0,0E0],"parents":[2147483647,0,0,1,1,2,2,3,3,4,4,5,5,6,6,7,7,8,8,9,9,10,10,11,11,12,12,13,13,14,14,15,15,16,16,17,17,18,18,19,19,20,20,21,21,22,22,24,24,26,26,27,27,28,28,30,30,31,31,32,32,33,33,34,34,35,35,36,36,37,37,38,38,39,39,40,40,41,41,42,42,43,43,44,44,45,45,46,46,47,47,48,48,50,50,51,51,53,53],"right_children":[2,4,6,8,10,12,14,16,18,20,22,24,26,28,30,32,34,36,38,40,42,44,46,-1,48,-1,50,52,54,-1,56,58,60,62,64,66,68,70,72,74,76,78,80,82,84,86,88,90,92,-1,94,96,-1,98,-1,-1,-1,-1,-1,-1,-1,-1,-1,-1,-1,-1,-1,-1,-1,-1,-1,-1,-1,-1,-1,-1,-1,-1,-1,-1,-1,-1,-1,-1,-1,-1,-1,-1,-1,-1,-1,-1,-1,-1,-1,-1,-1,-1,-1],"split_conditions":[1.7506936E0,-1.0180146E0,2.2920729E-1,5.8785546E-1,2.9299972E0,-2.2532198E0,-5.4316837E-1,-3.2885855E-1,-4.2740017E-1,1.1053208E0,-2.13506E-1,-1.0053561E0,-1.9687976E0,5.909078E-1,-1.6691063E-1,-8.218804E-1,-2.7347556E-1,-6.3852906E-1,-1.5421642E0,5.909078E-1,4.3863624E-1,-4.5977536E-1,1.1462709E0,1.0071013E0,-3.27714E0,2.515068E0,-1.4725254E0,5.616001E-1,1.8767548E0,9.703882E0,1.7832874E0,-9.2917806E-1,-3.3565155E-1,-1.4649638E0,-1.1285304E0,-6.584483E-1,-1.3837004E0,4.3863624E-1,-1.1602257E0,4.795365E-1,-7.370807E-1,5.5375683E-1,-5.1905674E-1,-4.7761238E-1,3.0417043E-1,-1.3301066E0,-1.07863456E-1,-7.972114E-1,3.0417043E-1,-2.3876897E-1,3.0417043E-1,2.9056954E-1,3.4420831E0,-1.259233E0,1.6867992E0,-6.1420444E-3,1.0659726E0,-1.1374061E-1,-1.391288E0,-1.2941076E-1,3.102131E-1,2.7426708E0,2.3015478E-1,1.8007187E0,-1.2940338E-1,1.3651351E-2,2.958505E0,-3.0628607E0,5.302507E-1,6.504393E0,-5.860932E-1,4.1688967E-2,3.6664598E0,-1.4605083E-1,7.791686E-2,4.527122E0,5.0288254E-1,-9.5339006E-1,-1.5949672E0,-5.902046E-1,-1.2920839E-1,1.838602E0,4.3259706E0,-7.695585E-1,1.7288659E0,-1.4752203E-1,4.2604128E-1,-1.5907054E0,2.746154E0,4.8780712E-1,-2.6627266E-1,2.8364068E-1,-5.144143E-1,1.1709361E0,3.265784E-1,1.883221E0,-1.10672E-1,3.894005E-2,2.0939642E-1],"split_indices":[2,5,6,6,6,5,4,6,3,6,5,3,5,6,4,3,6,3,5,6,0,0,2,0,5,0,3,6,2,0,2,6,6,5,4,3,5,0,5,2,3,4,5,5,1,3,5,3,1,0,1,6,0,3,0,0,0,0,0,0,0,0,0,0,0,0,0,0,0,0,0,0,0,0,0,0,0,0,0,0,0,0,0,0,0,0,0,0,0,0,0,0,0,0,0,0,0,0,0],"split_type":[0,0,0,0,0,0,0,0,0,0,0,0,0,0,0,0,0,0,0,0,0,0,0,0,0,0,0,0,0,0,0,0,0,0,0,0,0,0,0,0,0,0,0,0,0,0,0,0,0,0,0,0,0,0,0,0,0,0,0,0,0,0,0,0,0,0,0,0,0,0,0,0,0,0,0,0,0,0,0,0,0,0,0,0,0,0,0,0,0,0,0,0,0,0,0,0,0,0,0],"sum_hessian":[2.38E3,2.341E3,3.9E1,3.24E2,2.017E3,1.9E1,2E1,2.64E2,6E1,1.869E3,1.48E2,1.3E1,6E0,1.5E1,5E0,1.26E2,1.38E2,3.9E1,2.1E1,1.748E3,1.21E2,1.6E1,1.32E2,1E0,1.2E1,2E0,4E0,9E0,6E0,3E0,2E0,1.1E1,1.15E2,4.2E1,9.6E1,3.1E1,8E0,9E0,1.2E1,1.714E3,3.4E1,4.9E1,7.2E1,5E0,1.1E1,1.25E2,7E0,3E0,9E0,1E0,3E0,7E0,2E0,5E0,1E0,1E0,1E0,6E0,5E0,9.5E1,2E1,1.4E1,2.8E1,1.2E1,8.4E1,2.8E1,3E0,5E0,3E0,8E0,1E0,7E0,5E0,1.197E3,5.17E2,3E0,3.1E1,3.1E1,1.8E1,8E0,6.4E1,3E0,2E0,5E0,6E0,9.1E1,3.4E1,2E0,5E0,2E0,1E0,1E0,8E0,1E0,2E0,5E0,2E0,2E0,3E0],"tree_param":{"num_deleted":"0","num_feature":"7","num_nodes":"99","size_leaf_vector":"1"}},{"base_weights":[8.08065E-2,-3.082147E-3,4.990467E0,-4.5222133E-1,3.7443712E-1,1.9343759E0,9.011392E0,-5.2372284E0,-4.1124463E-1,1.5250294E0,-8.682948E-3,2.3210101E-1,4.2943506E0,3.909542E0,1.7713192E1,-2.836436E0,-2.681528E0,-9.1875154E-1,-3.08015E-1,3.055556E0,-2.4714695E-2,-4.5890713E-1,9.491753E-1,8.560358E-1,-1.5895644E-1,-4.6118674E-1,5.540883E0,5.7053375E0,2.5436068E-1,7.520509E0,2.0019023E0,-9.9176E-2,-1.0667362E0,-5.821796E-1,-1.4345253E0,3.5953984E0,-3.494776E-1,1.5363122E0,8.437532E0,2.79076E0,-4.733794E-1,-1.169074E0,-2.0145874E-1,3.4565897E0,1.7690717E-1,1.4968851E0,-9.7098154E-1,-2.0295353E-1,-4.5804977E-3,2.3095808E0,2.7065308E0,3.0176735E0,2.753666E0,1.2390571E-1,1.0915439E-2,-5.220795E-3,9.0607685E-1,-5.8835375E-1,-8.731745E-2,-2.624808E-1,-9.382981E-1,1.4766595E-1,-1.15451895E-1,-2.0636383E-1,8.7415934E-1,1.5936308E0,6.054115E0,2.835419E-1,4.249393E0,-6.0979086E-1,-7.906514E-4,-2.3780012E-1,-1.309896E0,-1.2896502E-1,1.4337866E-1,-1.7871869E-1,1.4761645E0,1.8865827E0,-1.149433E-2,6.744978E-1,-2.2633174E-1,-4.5876313E-2,-5.2753735E-1,9.546427E-1,1.2061279E-1,1.7787937E0,2.3857785E-2,4.8055746E-2,-4.3143798E-2],"categories":[],"categories_nodes":[],"categories_segments":[],"categories_sizes":[],"default_left":[0,0,0,0,0,0,0,0,0,0,0,0,0,0,0,0,0,0,0,0,0,0,0,0,0,0,0,0,0,0,0,0,0,0,0,0,0,0,0,0,0,0,0,0,0,0,0,0,0,0,0,0,0,0,0,0,0,0,0,0,0,0,0,0,0,0,0,0,0,0,0,0,0,0,0,0,0,0,0,0,0,0,0,0,0,0,0,0,0],"id":8,"left_children":[1,3,5,7,9,11,13,15,17,19,21,23,25,27,29,-1,31,33,35,37,39,41,43,-1,45,47,49,51,53,-1,55,-1,-1,57,59,-1,61,63,65,67,69,71,73,75,77,79,81,-1,-1,-1,83,85,-1,-1,87,-1,-1,-1,-1,-1,-1,-1,-1,-1,-1,-1,-1,-1,-1,-1,-1,-1,-1,-1,-1,-1,-1,-1,-1,-1,-1,-1,-1,-1,-1,-1,-1,-1,-1],"loss_changes":[9.806655E2,3.9727582E2,4.7410107E2,2.0764534E2,5.611707E2,9.541908E1,6.8546924E2,7.165605E1,5.535492E1,7.5434766E2,4.127115E2,1.5830061E1,6.18347E1,7.731627E1,6.431709E2,0E0,1.321183E1,3.0238342E1,4.54751E2,1.2952828E3,2.0217055E2,1.1878766E2,5.919258E2,0E0,2.0277634E1,2.7772295E-1,2.8089386E1,4.698697E1,1.8861485E-1,0E0,6.2216606E0,0E0,0E0,4.358938E1,6.3585724E1,0E0,2.6441383E1,3.880608E2,1.1773508E3,4.484336E2,1.0128812E2,2.0473848E2,7.454092E1,4.3006598E2,3.0935297E2,1.0154909E1,6.173127E0,0E0,0E0,0E0,4.200844E0,5.0857418E1,0E0,0E0,9.232571E-2,0E0,0E0,0E0,0E0,0E0,0E0,0E0,0E0,0E0,0E0,0E0,0E0,0E0,0E0,0E0,0E0,0E0,0E0,0E0,0E0,0E0,0E0,0E0,0E0,0E0,0E0,0E0,0E0,0E0,0E0,0E0,0E0,0E0,0E0],"parents":[2147483647,0,0,1,1,2,2,3,3,4,4,5,5,6,6,7,7,8,8,9,9,10,10,11,11,12,12,13,13,14,14,16,16,17,17,18,18,19,19,20,20,21,21,22,22,24,24,25,25,26,26,27,27,28,28,30,30,33,33,34,34,36,36,37,37,38,38,39,39,40,40,41,41,42,42,43,43,44,44,45,45,46,46,50,50,51,51,54,54],"right_children":[2,4,6,8,10,12,14,16,18,20,22,24,26,28,30,-1,32,34,36,38,40,42,44,-1,46,48,50,52,54,-1,56,-1,-1,58,60,-1,62,64,66,68,70,72,74,76,78,80,82,-1,-1,-1,84,86,-1,-1,88,-1,-1,-1,-1,-1,-1,-1,-1,-1,-1,-1,-1,-1,-1,-1,-1,-1,-1,-1,-1,-1,-1,-1,-1,-1,-1,-1,-1,-1,-1,-1,-1,-1,-1],"split_conditions":[1.7506936E0,-2.4399729E-1,2.8353047E-1,-1.9687976E0,-4.5977536E-1,-2.2532198E0,-5.4316837E-1,-5.1043427E-1,-2.2569552E-1,-3.5132247E-1,1.1783853E0,-1.0053561E0,-1.1433829E0,-2.1678932E0,-1.6691063E-1,-2.836436E0,-9.321661E-1,3.7946698E-1,-2.13506E-1,5.616001E-1,-1.0839139E0,-4.6542284E-1,3.0417043E-1,8.560358E-1,-3.27714E0,1.7832874E0,-7.54165E-1,-2.7773693E0,-9.9949855E-1,7.520509E0,1.7832874E0,-9.9176E-2,-1.0667362E0,-1.1630937E0,2.963076E-1,3.5953984E0,-5.7209212E-2,-8.084011E-1,-7.3318607E-1,-1.2189469E0,-4.2638734E-1,1.1534606E0,5.616001E-1,-9.652939E-1,-2.7773693E0,-6.160484E-1,-4.9760497E-1,-2.0295353E-1,-4.5804977E-3,2.3095808E0,1.017258E0,-1.1025649E0,2.753666E0,1.2390571E-1,1.7832874E0,-5.220795E-3,9.0607685E-1,-5.8835375E-1,-8.731745E-2,-2.624808E-1,-9.382981E-1,1.4766595E-1,-1.15451895E-1,-2.0636383E-1,8.7415934E-1,1.5936308E0,6.054115E0,2.835419E-1,4.249393E0,-6.0979086E-1,-7.906514E-4,-2.3780012E-1,-1.309896E0,-1.2896502E-1,1.4337866E-1,-1.7871869E-1,1.4761645E0,1.8865827E0,-1.149433E-2,6.744978E-1,-2.2633174E-1,-4.5876313E-2,-5.2753735E-1,9.546427E-1,1.2061279E-1,1.7787937E0,2.3857785E-2,4.8055746E-2,-4.3143798E-2],"split_indices":[2,2,6,5,0,5,4,3,5,4,2,3,4,5,4,0,6,3,5,6,3,5,1,0,5,2,3,5,4,0,2,0,0,2,6,0,5,6,5,3,5,2,6,3,5,3,4,0,0,0,4,3,0,0,2,0,0,0,0,0,0,0,0,0,0,0,0,0,0,0,0,0,0,0,0,0,0,0,0,0,0,0,0,0,0,0,0,0,0],"split_type":[0,0,0,0,0,0,0,0,0,0,0,0,0,0,0,0,0,0,0,0,0,0,0,0,0,0,0,0,0,0,0,0,0,0,0,0,0,0,0,0,0,0,0,0,0,0,0,0,0,0,0,0,0,0,0,0,0,0,0,0,0,0,0,0,0,0,0,0,0,0,0,0,0,0,0,0,0,0,0,0,0,0,0,0,0,0,0,0,0],"sum_hessian":[2.38E3,2.341E3,3.9E1,1.069E3,1.272E3,2.3E1,1.6E1,8E0,1.061E3,3.17E2,9.55E2,1.4E1,9E0,1.1E1,5E0,2E0,6E0,1.78E2,8.83E2,1.59E2,1.58E2,6.5E2,3.05E2,1E0,1.3E1,2E0,7E0,7E0,4E0,3E0,2E0,2E0,4E0,1.09E2,6.9E1,2E0,8.81E2,1.25E2,3.4E1,2.1E1,1.37E2,1.72E2,4.78E2,7.1E1,2.34E2,4E0,9E0,1E0,1E0,3E0,4E0,5E0,2E0,2E0,2E0,1E0,1E0,1.8E1,9.1E1,5.3E1,1.6E1,3.5E1,8.46E2,4.8E1,7.7E1,2.8E1,6E0,1.9E1,2E0,3.1E1,1.06E2,1.55E2,1.7E1,3.58E2,1.2E2,1.9E1,5.2E1,7E0,2.27E2,3E0,1E0,5E0,4E0,3E0,1E0,2E0,3E0,1E0,1E0],"tree_param":{"num_deleted":"0","num_feature":"7","num_nodes":"89","size_leaf_vector":"1"}},{"base_weights":[6.859334E-2,-7.412916E-2,1.9252614E0,-2.7938986E-1,2.746541E-1,1.0206544E0,5.1493716E0,-9.228342E-2,-1.0097023E0,1.092967E0,-2.4058373E-1,1.6048316E0,-1.3538563E0,1.0226836E1,-1.9911279E-1,-2.889992E-1,1.2953742E0,-2.1859055E0,-3.8789687E-1,9.1862327E-1,1.4505712E1,1.2700335E0,-3.594988E-1,1.3172439E0,4.856506E0,-1.5946506E-2,-6.0338826E0,6.4806557E0,6.743822E0,-1.0787171E0,3.3690827E0,-1.0076813E0,-2.571075E-1,4.0324674E0,3.617815E-1,1.3791862E0,-2.30323E0,-1.1943733E-1,-8.899372E-1,-1.2268176E0,1.3689334E0,-5.3440225E-1,6.158553E0,-2.9386672E-1,6.168153E0,-2.4410078E-1,-1.9241688E0,2.4833362E0,1.1058261E0,-7.7138084E-1,1.5076795E0,-3.390184E0,-2.8878565E0,9.815365E0,1.3925E0,-2.3203053E0,1.4477438E-1,1.769434E-1,1.2296709E0,-5.883042E-1,-1.4850791E-1,4.6446925E-1,-9.133149E-2,7.1513325E-1,4.0343556E0,-4.7331374E-2,5.132679E-1,-1.6909002E-1,-7.9975474E-1,-7.163351E-2,8.234301E-1,-7.110776E-1,-1.6334899E-1,-1.825512E0,-2.4885467E-1,1.7750957E0,2.8336695E-1,1.7871389E-1,-7.010703E-1,2.2487438E0,-6.6796833E-1,-1.1137947E-1,2.6156706E-1,-3.899663E-1,-1.0125366E0,1.1705494E0,2.004982E-1,-1.1259762E0,-6.946425E-2,-2.2896081E-1,-1.1568387E0,5.6939167E-1,3.46724E0,-5.6071806E-1,3.1442792E0,4.230713E-1,-9.164108E-1,2.2823761E-1,-7.1750504E-1],"categories":[],"categories_nodes":[],"categories_segments":[],"categories_sizes":[],"default_left":[0,0,0,0,0,0,0,0,0,0,0,0,0,0,0,0,0,0,0,0,0,0,0,0,0,0,0,0,0,0,0,0,0,0,0,0,0,0,0,0,0,0,0,0,0,0,0,0,0,0,0,0,0,0,0,0,0,0,0,0,0,0,0,0,0,0,0,0,0,0,0,0,0,0,0,0,0,0,0,0,0,0,0,0,0,0,0,0,0,0,0,0,0,0,0,0,0,0,0],"id":9,"left_children":[1,3,5,7,9,11,13,15,17,19,21,23,25,27,29,31,33,35,37,39,41,43,45,47,-1,49,51,-1,53,55,57,59,61,63,65,-1,67,69,71,73,75,-1,-1,77,79,81,83,-1,85,87,-1,89,-1,91,93,95,97,-1,-1,-1,-1,-1,-1,-1,-1,-1,-1,-1,-1,-1,-1,-1,-1,-1,-1,-1,-1,-1,-1,-1,-1,-1,-1,-1,-1,-1,-1,-1,-1,-1,-1,-1,-1,-1,-1,-1,-1,-1,-1],"loss_changes":[6.3107983E2,1.5843712E2,4.9055823E2,1.9025488E2,3.459961E2,1.8804877E2,1.0068357E3,3.0337567E2,2.0686108E2,7.2795654E2,9.099271E1,4.3163235E2,1.6896304E2,6.071083E2,6.3267693E1,2.2042084E1,3.511767E2,8.858038E1,2.5097101E1,3.0503912E2,4.289427E2,2.852389E2,8.4032326E1,1.4830562E2,0E0,8.766488E1,2.4347275E1,0E0,2.493211E2,2.4641085E1,5.6958923E0,1.9067207E1,8.01944E1,5.1124994E2,7.316712E1,0E0,5.9686035E1,4.2698895E1,3.194801E1,1.0111237E2,4.9623395E2,0E0,0E0,5.409793E1,1.1699777E2,6.234012E1,2.4598396E1,0E0,1.2583345E2,3.1325235E1,0E0,3.1771278E0,0E0,1.15993286E2,2.2708672E2,2.622546E1,1.5882097E1,0E0,0E0,0E0,0E0,0E0,0E0,0E0,0E0,0E0,0E0,0E0,0E0,0E0,0E0,0E0,0E0,0E0,0E0,0E0,0E0,0E0,0E0,0E0,0E0,0E0,0E0,0E0,0E0,0E0,0E0,0E0,0E0,0E0,0E0,0E0,0E0,0E0,0E0,0E0,0E0,0E0,0E0],"parents":[2147483647,0,0,1,1,2,2,3,3,4,4,5,5,6,6,7,7,8,8,9,9,10,10,11,11,12,12,13,13,14,14,15,15,16,16,17,17,18,18,19,19,20,20,21,21,22,22,23,23,25,25,26,26,28,28,29,29,30,30,31,31,32,32,33,33,34,34,36,36,37,37,38,38,39,39,40,40,43,43,44,44,45,45,46,46,48,48,49,49,51,51,53,53,54,54,55,55,56,56],"right_children":[2,4,6,8,10,12,14,16,18,20,22,24,26,28,30,32,34,36,38,40,42,44,46,48,-1,50,52,-1,54,56,58,60,62,64,66,-1,68,70,72,74,76,-1,-1,78,80,82,84,-1,86,88,-1,90,-1,92,94,96,98,-1,-1,-1,-1,-1,-1,-1,-1,-1,-1,-1,-1,-1,-1,-1,-1,-1,-1,-1,-1,-1,-1,-1,-1,-1,-1,-1,-1,-1,-1,-1,-1,-1,-1,-1,-1,-1,-1,-1,-1,-1,-1],"split_conditions":[1.4367388E0,2.799024E-1,5.8785546E-1,-2.2084098E-1,-9.4996735E-2,-1.388574E-1,1.1053208E0,-2.7351254E-1,-2.13506E-1,-1.07863456E-1,-1.8172697E0,-1.4810827E-1,-2.7394676E-1,3.0417043E-1,1.1060911E0,-1.2338909E0,-4.5977536E-1,-2.496604E0,3.3468124E-1,-4.5796582E-1,-4.469894E-1,8.6051613E-1,1.0308985E0,-1.2458038E0,4.856506E0,7.543246E-1,5.616001E-1,6.4806557E0,-1.6736755E0,1.6160046E0,-8.069564E-1,-1.2496156E0,-1.1285304E0,5.4550695E-1,9.2738134E-1,1.3791862E0,-1.0563561E0,2.6273903E-1,1.2373751E-1,-1.7737651E0,-1.1285304E0,-5.3440225E-1,6.158553E0,4.795365E-1,3.4593816E0,6.0224247E-1,-3.057959E-1,2.4833362E0,3.0417043E-1,-8.258124E-2,1.5076795E0,-1.17794245E-1,-2.8878565E0,-8.796984E-1,-9.895724E-1,-8.069564E-1,1.4533566E-1,1.769434E-1,1.2296709E0,-5.883042E-1,-1.4850791E-1,4.6446925E-1,-9.133149E-2,7.1513325E-1,4.0343556E0,-4.7331374E-2,5.132679E-1,-1.6909002E-1,-7.9975474E-1,-7.163351E-2,8.234301E-1,-7.110776E-1,-1.6334899E-1,-1.825512E0,-2.4885467E-1,1.7750957E0,2.8336695E-1,1.7871389E-1,-7.010703E-1,2.2487438E0,-6.6796833E-1,-1.1137947E-1,2.6156706E-1,-3.899663E-1,-1.0125366E0,1.1705494E0,2.004982E-1,-1.1259762E0,-6.946425E-2,-2.2896081E-1,-1.1568387E0,5.6939167E-1,3.46724E0,-5.6071806E-1,3.1442792E0,4.230713E-1,-9.164108E-1,2.2823761E-1,-7.1750504E-1],"split_indices":[2,6,6,6,5,3,6,6,5,5,3,3,6,1,6,4,0,5,4,2,2,2,2,4,0,3,6,0,5,2,4,5,4,2,2,0,4,4,5,5,4,0,0,2,4,2,3,0,1,3,0,3,0,3,5,4,4,0,0,0,0,0,0,0,0,0,0,0,0,0,0,0,0,0,0,0,0,0,0,0,0,0,0,0,0,0,0,0,0,0,0,0,0,0,0,0,0,0,0],"split_type":[0,0,0,0,0,0,0,0,0,0,0,0,0,0,0,0,0,0,0,0,0,0,0,0,0,0,0,0,0,0,0,0,0,0,0,0,0,0,0,0,0,0,0,0,0,0,0,0,0,0,0,0,0,0,0,0,0,0,0,0,0,0,0,0,0,0,0,0,0,0,0,0,0,0,0,0,0,0,0,0,0,0,0,0,0,0,0,0,0,0,0,0,0,0,0,0,0,0,0],"sum_hessian":[2.38E3,2.211E3,1.69E2,1.392E3,8.19E2,1.33E2,3.6E1,1.109E3,2.83E2,3.16E2,5.03E2,1.07E2,2.6E1,1.8E1,1.8E1,9.72E2,1.37E2,9.7E1,1.86E2,3.13E2,3E0,3.6E1,4.67E2,1.06E2,1E0,2.1E1,5E0,3E0,1.5E1,1.5E1,3E0,4E1,9.32E2,3.4E1,1.03E2,1E0,9.6E1,1.22E2,6.4E1,5.4E1,2.59E2,1E0,2E0,2.8E1,8E0,4.36E2,3.1E1,2E0,1.04E2,1.9E1,2E0,4E0,1E0,9E0,6E0,7E0,8E0,1E0,2E0,1.3E1,2.7E1,2.3E1,9.09E2,3E1,4E0,7.5E1,2.8E1,1.7E1,7.9E1,1.18E2,4E0,1.1E1,5.3E1,3E0,5.1E1,2.1E1,2.38E2,2E1,8E0,7E0,1E0,3.92E2,4.4E1,2.3E1,8E0,1.3E1,9.1E1,2E0,1.7E1,1E0,3E0,2E0,7E0,5E0,1E0,1E0,6E0,7E0,1E0],"tree_param":{"num_deleted":"0","num_feature":"7","num_nodes":"99","size_leaf_vector":"1"}},{"base_weights":[6.0122915E-2,1.4777762E-3,2.8511226E0,1.8549976E0,-3.166474E-2,1.0779458E1,1.9068383E0,1.7127444E-1,1.0008615E1,1.8297268E-1,-2.3676012E-1,3.9179757E0,5.7338085E0,3.194938E0,-1.901681E0,-1.635693E0,2.4192789E0,4.9010205E0,1.1783412E0,-1.3383041E-1,7.305737E-1,-1.5181242E-1,-9.8787844E-1,1.3949265E0,2.5839573E-1,-4.8533732E-1,3.7018194E0,-9.0318257E-1,-1.1018647E0,-8.241169E-1,-4.6759677E0,2.4091978E-1,3.5335588E0,9.031078E-1,-4.3578467E-1,-2.2547656E-1,2.4989355E0,1.1168154E-1,3.1028934E0,-2.6243502E-1,1.2766345E0,-3.4016827E-1,-5.1362524E0,-4.507644E-1,1.4460227E-1,2.7121542E0,8.107714E0,-9.361413E-1,-2.3596263E-1,-1.1191926E-1,-1.2061441E0,-1.6078894E0,-3.9374658E-1,-1.4185849E-1,6.430766E-1,-1.4865876E-3,-1.9461651E-1,-1.7669454E0,-5.5122275E-2,1.02014504E-1,2.6756766E0,1.9584048E-1,-1.9592215E-1,5.587853E-1,3.147806E0,-2.8642297E-1,-5.0514366E-2,2.8336016E-2,4.5159016E0,-2.862836E-1,1.3646702E-1,-2.4129732E0,3.1478223E-1,-4.0331572E-2,8.472863E-2,9.6844584E-1,-3.020096E-2,6.975558E-1,2.691615E0,-2.6144877E-1,1.8523338E-1],"categories":[],"categories_nodes":[],"categories_segments":[],"categories_sizes":[],"default_left":[0,0,0,0,0,0,0,0,0,0,0,0,0,0,0,0,0,0,0,0,0,0,0,0,0,0,0,0,0,0,0,0,0,0,0,0,0,0,0,0,0,0,0,0,0,0,0,0,0,0,0,0,0,0,0,0,0,0,0,0,0,0,0,0,0,0,0,0,0,0,0,0,0,0,0,0,0,0,0,0,0],"id":10,"left_children":[1,3,5,7,9,11,13,15,17,19,21,23,-1,25,27,29,31,-1,33,35,37,39,41,-1,-1,43,45,47,-1,49,51,53,-1,-1,55,57,59,61,63,65,67,69,71,-1,73,75,77,-1,79,-1,-1,-1,-1,-1,-1,-1,-1,-1,-1,-1,-1,-1,-1,-1,-1,-1,-1,-1,-1,-1,-1,-1,-1,-1,-1,-1,-1,-1,-1,-1,-1],"loss_changes":[3.8971448E2,1.4337567E2,3.462889E2,5.611516E2,1.0098381E2,2.1100873E2,2.2683461E2,1.4612968E2,3.7190295E2,1.9457077E2,7.469421E1,4.942272E0,0E0,6.522235E1,1.7905216E1,4.5494736E1,3.2336722E2,0E0,1.3140301E1,1.7211555E2,6.030878E2,1.6704457E2,3.1799915E2,0E0,0E0,3.4211779E0,1.0882144E2,1.2578457E1,0E0,2.3009483E1,2.163498E0,2.0026875E1,0E0,0E0,2.72004E-1,1.6156442E2,3.2960773E2,1.357469E2,7.595135E2,6.365116E1,1.2363267E3,5.121247E1,2.9613986E2,0E0,1.918062E-1,3.806172E1,4.12854E0,0E0,4.8770494E0,0E0,0E0,0E0,0E0,0E0,0E0,0E0,0E0,0E0,0E0,0E0,0E0,0E0,0E0,0E0,0E0,0E0,0E0,0E0,0E0,0E0,0E0,0E0,0E0,0E0,0E0,0E0,0E0,0E0,0E0,0E0,0E0],"parents":[2147483647,0,0,1,1,2,2,3,3,4,4,5,5,6,6,7,7,8,8,9,9,10,10,11,11,13,13,14,14,15,15,16,16,18,18,19,19,20,20,21,21,22,22,25,25,26,26,27,27,29,29,30,30,31,31,34,34,35,35,36,36,37,37,38,38,39,39,40,40,41,41,42,42,44,44,45,45,46,46,48,48],"right_children":[2,4,6,8,10,12,14,16,18,20,22,24,-1,26,28,30,32,-1,34,36,38,40,42,-1,-1,44,46,48,-1,50,52,54,-1,-1,56,58,60,62,64,66,68,70,72,-1,74,76,78,-1,80,-1,-1,-1,-1,-1,-1,-1,-1,-1,-1,-1,-1,-1,-1,-1,-1,-1,-1,-1,-1,-1,-1,-1,-1,-1,-1,-1,-1,-1,-1,-1,-1],"split_conditions":[1.6931752E0,-2.1678932E0,3.0417043E-1,2.963076E-1,-1.08841784E-1,-6.411799E-1,-4.8559117E-1,-1.874245E-1,1.5412307E0,-5.0051194E-1,9.7994673E-1,1.7832874E0,5.7338085E0,-9.321661E-1,-2.0900987E-1,2.254393E-1,-2.8148758E-1,4.9010205E0,1.5930612E0,1.5930612E0,5.616001E-1,6.765371E-1,5.616001E-1,1.3949265E0,2.5839573E-1,-8.601025E-1,1.8767548E0,-4.6694022E-1,-1.1018647E0,2.093471E-1,-3.72442E-1,2.910348E-1,3.5335588E0,9.031078E-1,1.6399707E0,-1.9687976E0,-6.584483E-1,-2.2084098E-1,1.1783853E0,-6.828027E-1,5.8785546E-1,4.059247E-1,5.8785546E-1,-4.507644E-1,1.8767548E0,-1.4649638E0,-3.2885855E-1,-9.361413E-1,-2.3426096E0,-1.1191926E-1,-1.2061441E0,-1.6078894E0,-3.9374658E-1,-1.4185849E-1,6.430766E-1,-1.4865876E-3,-1.9461651E-1,-1.7669454E0,-5.5122275E-2,1.02014504E-1,2.6756766E0,1.9584048E-1,-1.9592215E-1,5.587853E-1,3.147806E0,-2.8642297E-1,-5.0514366E-2,2.8336016E-2,4.5159016E0,-2.862836E-1,1.3646702E-1,-2.4129732E0,3.1478223E-1,-4.0331572E-2,8.472863E-2,9.6844584E-1,-3.020096E-2,6.975558E-1,2.691615E0,-2.6144877E-1,1.8523338E-1],"split_indices":[2,5,1,6,3,4,3,3,2,3,2,2,0,6,3,6,6,0,2,2,6,2,6,0,0,3,2,3,0,4,3,3,0,0,2,5,3,6,2,5,6,3,6,0,2,5,6,0,5,0,0,0,0,0,0,0,0,0,0,0,0,0,0,0,0,0,0,0,0,0,0,0,0,0,0,0,0,0,0,0,0],"split_type":[0,0,0,0,0,0,0,0,0,0,0,0,0,0,0,0,0,0,0,0,0,0,0,0,0,0,0,0,0,0,0,0,0,0,0,0,0,0,0,0,0,0,0,0,0,0,0,0,0,0,0,0,0,0,0,0,0,0,0,0,0,0,0,0,0,0,0,0,0,0,0,0,0,0,0,0,0,0,0,0,0],"sum_hessian":[2.38E3,2.332E3,4.8E1,4E1,2.292E3,4E0,4.4E1,3.4E1,6E0,1.12E3,1.172E3,3E0,1E0,3.3E1,1.1E1,1.9E1,1.5E1,3E0,3E0,7.1E2,4.1E2,1.054E3,1.18E2,2E0,1E0,4E0,2.9E1,8E0,3E0,1.6E1,3E0,1.3E1,2E0,1E0,2E0,6.87E2,2.3E1,3.26E2,8.4E1,9.79E2,7.5E1,1.03E2,1.5E1,1E0,3E0,2.5E1,4E0,1E0,7E0,1.5E1,1E0,2E0,1E0,1E1,3E0,1E0,1E0,4E0,6.83E2,1.8E1,5E0,1.91E2,1.35E2,7.3E1,1.1E1,1.16E2,8.63E2,7E1,5E0,5.8E1,4.5E1,1E1,5E0,1E0,2E0,2.1E1,4E0,1E0,3E0,4E0,3E0],"tree_param":{"num_deleted":"0","num_feature":"7","num_nodes":"81","size_leaf_vector":"1"}},{"base_weights":[5.1384047E-2,6.5829135E-3,2.1834178E0,1.4527205E0,-1.9277629E-2,9.0230465E0,1.3749387E0,1.4032292E-1,7.807177E0,3.1436756E-1,-1.2906395E-1,3.1559136E0,4.873737E0,2.3517818E0,-1.5073617E0,-2.03747E0,1.3651484E0,3.7982907E0,1.0015907E0,2.6291264E-2,3.365088E0,7.22606E-2,-2.986662E-1,1.1159413E0,2.196363E-1,-2.1800841E-1,2.8023667E0,-7.4471205E-1,-2.846483E0,4.6823588E-1,-2.4673903E0,-8.312264E-2,4.0910473E0,7.6764166E-1,-3.7041602E-1,1.9855516E0,-1.6350298E-1,-7.6359004E-1,5.787017E0,-1.669206E-1,1.7242801E0,-7.520878E-1,-1.013109E-1,-3.831497E-1,2.4925616E-1,1.9800987E0,6.3532333E0,-7.9572016E-1,-1.7470092E-1,-9.857489E-1,-2.2926651E-1,-1.7307642E-1,-1.1205925E0,-1.6792531E-1,5.532393E-2,-1.2502085E-1,2.0637193E0,-1.2634278E-3,-1.6542378E-1,1.678057E0,1.7796837E-2,8.644778E-1,-8.2778424E-2,-5.50749E-1,4.010391E-1,1.0825589E0,4.278788E0,-3.888045E-1,-1.4880939E-2,-3.8618025E-1,7.479774E-1,-4.7442183E-1,-5.35204E-2,1.67932E0,-4.0851735E-2,1.1061198E-1,-3.4281835E-2,4.1103238E-1,1.4520073E0,5.7876724E-1,2.093079E0,-2.0684531E-1,1.5373608E-1],"categories":[],"categories_nodes":[],"categories_segments":[],"categories_sizes":[],"default_left":[0,0,0,0,0,0,0,0,0,0,0,0,0,0,0,0,0,0,0,0,0,0,0,0,0,0,0,0,0,0,0,0,0,0,0,0,0,0,0,0,0,0,0,0,0,0,0,0,0,0,0,0,0,0,0,0,0,0,0,0,0,0,0,0,0,0,0,0,0,0,0,0,0,0,0,0,0,0,0,0,0,0,0],"id":11,"left_children":[1,3,5,7,9,11,13,15,17,19,21,23,-1,25,27,29,31,-1,33,35,37,39,41,-1,-1,43,45,47,49,-1,51,53,55,-1,57,59,61,63,65,67,69,71,73,-1,75,77,79,-1,81,-1,-1,-1,-1,-1,-1,-1,-1,-1,-1,-1,-1,-1,-1,-1,-1,-1,-1,-1,-1,-1,-1,-1,-1,-1,-1,-1,-1,-1,-1,-1,-1,-1,-1],"loss_changes":[2.2741287E2,8.727732E1,2.58549E2,3.4082697E2,8.403242E1,1.6061365E2,1.30245E2,9.614102E1,2.185492E2,4.9909277E2,5.895603E1,2.7436714E0,0E0,3.9979828E1,1.0135555E1,2.3961594E1,9.114038E1,0E0,9.493858E0,1.9368994E2,4.9438782E2,3.124421E2,8.377139E1,0E0,0E0,3.2877815E0,7.2093124E1,9.323256E0,1.1482315E0,0E0,2.6608528E1,2.1434677E0,1.03408966E2,0E0,1.965231E-1,3.1935797E2,1.6340904E2,4.524438E1,5.20917E2,9.14673E1,2.3479074E2,1.3483615E2,1.3069734E2,0E0,2.5925156E-1,3.6981857E1,3.3613586E-1,0E0,3.1832154E0,0E0,0E0,0E0,0E0,0E0,0E0,0E0,0E0,0E0,0E0,0E0,0E0,0E0,0E0,0E0,0E0,0E0,0E0,0E0,0E0,0E0,0E0,0E0,0E0,0E0,0E0,0E0,0E0,0E0,0E0,0E0,0E0,0E0,0E0],"parents":[2147483647,0,0,1,1,2,2,3,3,4,4,5,5,6,6,7,7,8,8,9,9,10,10,11,11,13,13,14,14,15,15,16,16,18,18,19,19,20,20,21,21,22,22,25,25,26,26,27,27,28,28,30,30,31,31,32,32,34,34,35,35,36,36,37,37,38,38,39,39,40,40,41,41,42,42,44,44,45,45,46,46,48,48],"right_children":[2,4,6,8,10,12,14,16,18,20,22,24,-1,26,28,30,32,-1,34,36,38,40,42,-1,-1,44,46,48,50,-1,52,54,56,-1,58,60,62,64,66,68,70,72,74,-1,76,78,80,-1,82,-1,-1,-1,-1,-1,-1,-1,-1,-1,-1,-1,-1,-1,-1,-1,-1,-1,-1,-1,-1,-1,-1,-1,-1,-1,-1,-1,-1,-1,-1,-1,-1,-1,-1],"split_conditions":[1.6931752E0,-2.1678932E0,3.0417043E-1,2.963076E-1,-4.5977536E-1,-6.411799E-1,-4.8559117E-1,-3.72442E-1,1.5412307E0,6.324396E-1,3.0417043E-1,1.7832874E0,4.873737E0,-8.0931455E-1,-2.0900987E-1,-1.0192324E0,-9.321661E-1,3.7982907E0,1.5930612E0,-1.0839139E0,-5.1043427E-1,1.0878577E0,-1.07863456E-1,1.1159413E0,2.196363E-1,-8.601025E-1,1.8767548E0,-4.6694022E-1,9.425504E-2,4.6823588E-1,-9.321661E-1,-2.9358332E0,-1.874245E-1,7.6764166E-1,1.6399707E0,-2.13506E-1,-1.5827959E0,1.8406676E-1,5.8785546E-1,-9.1643524E-1,-8.0931455E-1,1.2306312E0,-9.4996735E-2,-3.831497E-1,-6.661573E-1,-5.9451276E-1,-1.1025649E0,-7.9572016E-1,-7.326162E-1,-9.857489E-1,-2.2926651E-1,-1.7307642E-1,-1.1205925E0,-1.6792531E-1,5.532393E-2,-1.2502085E-1,2.0637193E0,-1.2634278E-3,-1.6542378E-1,1.678057E0,1.7796837E-2,8.644778E-1,-8.2778424E-2,-5.50749E-1,4.010391E-1,1.0825589E0,4.278788E0,-3.888045E-1,-1.4880939E-2,-3.8618025E-1,7.479774E-1,-4.7442183E-1,-5.35204E-2,1.67932E0,-4.0851735E-2,1.1061198E-1,-3.4281835E-2,4.1103238E-1,1.4520073E0,5.7876724E-1,2.093079E0,-2.0684531E-1,1.5373608E-1],"split_indices":[2,5,1,6,0,4,3,3,2,2,1,2,0,6,3,3,6,0,2,3,3,2,5,0,0,3,2,3,4,0,6,5,3,0,2,5,5,4,6,5,6,2,5,0,3,3,3,0,4,0,0,0,0,0,0,0,0,0,0,0,0,0,0,0,0,0,0,0,0,0,0,0,0,0,0,0,0,0,0,0,0,0,0],"split_type":[0,0,0,0,0,0,0,0,0,0,0,0,0,0,0,0,0,0,0,0,0,0,0,0,0,0,0,0,0,0,0,0,0,0,0,0,0,0,0,0,0,0,0,0,0,0,0,0,0,0,0,0,0,0,0,0,0,0,0,0,0,0,0,0,0,0,0,0,0,0,0,0,0,0,0,0,0,0,0,0,0,0,0],"sum_hessian":[2.38E3,2.332E3,4.8E1,4E1,2.292E3,4E0,4.4E1,3.4E1,6E0,5.67E2,1.725E3,3E0,1E0,3.3E1,1.1E1,1.2E1,2.2E1,3E0,3E0,5.19E2,4.8E1,7.89E2,9.36E2,2E0,1E0,5E0,2.8E1,8E0,3E0,1E0,1.1E1,1.5E1,7E0,1E0,2E0,4.5E1,4.74E2,1.8E1,3E1,6.9E2,9.9E1,2.83E2,6.53E2,1E0,4E0,2.4E1,4E0,1E0,7E0,2E0,1E0,5E0,6E0,5E0,1E1,3E0,4E0,1E0,1E0,1.5E1,3E1,1.6E1,4.58E2,1.2E1,6E0,2.5E1,5E0,6.4E1,6.26E2,2E1,7.9E1,1.15E2,1.68E2,3E0,6.5E2,3E0,1E0,2.1E1,3E0,1E0,3E0,4E0,3E0],"tree_param":{"num_deleted":"0","num_feature":"7","num_nodes":"83","size_leaf_vector":"1"}},{"base_weights":[4.543175E-2,1.0676489E-2,1.6992807E0,3.2377112E-1,-7.512274E-2,7.557996E0,1.0105505E0,-8.2122415E-1,5.758847E-1,-3.882322E-2,-1.0937738E0,2.543034E0,4.142677E0,2.3915267E0,-2.974506E-1,-2.123624E0,-3.229969E-1,2.9620633E0,3.1134382E-1,-8.9735165E-2,5.3668064E-1,2.0666416E0,-1.3430672E0,1.0392432E0,3.243849E-1,4.755931E-1,3.6813583E0,-1.1405053E0,3.1342585E0,6.0854916E-2,-2.8166625E0,2.1002394E-1,-1.5860971E0,3.460583E0,1.4509151E0,7.410966E-1,-6.8022317E-1,-1.9665027E-2,-1.148224E0,3.919519E0,1.9945657E-1,1.7810145E-1,8.5521936E-1,-2.775642E0,-8.3569634E-1,1.153908E0,-8.3035636E-1,-3.232789E-1,4.915077E0,-2.5165322E0,-6.3921535E-1,1.6771122E0,-3.666099E-1,-2.5769886E-1,1.8017837E-1,-1.1913723E0,-4.1412535E-1,-7.221524E-2,1.5685077E0,-2.6468349E-1,-1.0563295E0,-2.8466976E-1,1.0944178E0,-1.5551497E-1,4.7522187E-1,8.433671E-2,-1.0825901E0,-3.523259E-2,1.7924993E-1,-9.1023153E-1,-6.889195E-2,-6.540695E-2,1.5547752E0,1.6240755E-1,-4.9005544E-1,-1.1754595E0,-3.8583905E-1,-2.9848334E-1,5.1762754E-1,7.325458E-1,-1.2674403E-1,-5.0512936E-2,-2.9846728E-1,-3.2567728E-1,8.780661E-2,1.8455281E0,4.56634E-1,-1.0985863E0,-1.596798E-1,-5.728063E-1,-5.9769902E-2,-2.1138154E-1,4.640708E-2],"categories":[],"categories_nodes":[],"categories_segments":[],"categories_sizes":[],"default_left":[0,0,0,0,0,0,0,0,0,0,0,0,0,0,0,0,0,0,0,0,0,0,0,0,0,0,0,0,0,0,0,0,0,0,0,0,0,0,0,0,0,0,0,0,0,0,0,0,0,0,0,0,0,0,0,0,0,0,0,0,0,0,0,0,0,0,0,0,0,0,0,0,0,0,0,0,0,0,0,0,0,0,0,0,0,0,0,0,0,0,0,0,0],"id":12,"left_children":[1,3,5,7,9,11,13,15,17,19,21,23,-1,25,27,29,31,33,35,37,39,41,43,-1,-1,45,47,49,51,53,55,57,59,-1,61,63,65,67,69,71,73,-1,-1,75,77,79,81,83,85,87,89,-1,91,-1,-1,-1,-1,-1,-1,-1,-1,-1,-1,-1,-1,-1,-1,-1,-1,-1,-1,-1,-1,-1,-1,-1,-1,-1,-1,-1,-1,-1,-1,-1,-1,-1,-1,-1,-1,-1,-1,-1,-1],"loss_changes":[1.3684163E2,6.2696346E1,1.9008089E2,1.4538472E2,6.769856E1,1.2162424E2,8.19957E1,5.8363163E1,2.591494E2,5.190919E1,5.241147E1,1.6400127E0,0E0,5.2616264E1,7.300949E1,3.80196E1,4.5441452E1,5.1443463E2,1.5902397E2,1.20649506E2,1.6348976E2,4.082304E0,4.0564354E1,0E0,0E0,9.816605E0,6.581671E1,1.21871605E1,4.5042168E1,3.991269E0,2.6024933E1,1.09833176E2,2.4131218E1,0E0,1.9328021E2,2.7686615E2,3.1913367E2,9.2216194E1,1.7426962E2,6.906769E1,8.360838E1,0E0,0E0,2.048845E1,2.0070118E1,1.5243355E1,2.6815772E-1,2.195978E0,3.2596527E1,9.414978E0,8.561012E0,0E0,6.3758636E-1,0E0,0E0,0E0,0E0,0E0,0E0,0E0,0E0,0E0,0E0,0E0,0E0,0E0,0E0,0E0,0E0,0E0,0E0,0E0,0E0,0E0,0E0,0E0,0E0,0E0,0E0,0E0,0E0,0E0,0E0,0E0,0E0,0E0,0E0,0E0,0E0,0E0,0E0,0E0,0E0],"parents":[2147483647,0,0,1,1,2,2,3,3,4,4,5,5,6,6,7,7,8,8,9,9,10,10,11,11,13,13,14,14,15,15,16,16,17,17,18,18,19,19,20,20,21,21,22,22,25,25,26,26,27,27,28,28,29,29,30,30,31,31,32,32,34,34,35,35,36,36,37,37,38,38,39,39,40,40,43,43,44,44,45,45,46,46,47,47,48,48,49,49,50,50,52,52],"right_children":[2,4,6,8,10,12,14,16,18,20,22,24,-1,26,28,30,32,34,36,38,40,42,44,-1,-1,46,48,50,52,54,56,58,60,-1,62,64,66,68,70,72,74,-1,-1,76,78,80,82,84,86,88,90,-1,92,-1,-1,-1,-1,-1,-1,-1,-1,-1,-1,-1,-1,-1,-1,-1,-1,-1,-1,-1,-1,-1,-1,-1,-1,-1,-1,-1,-1,-1,-1,-1,-1,-1,-1,-1,-1,-1,-1,-1,-1],"split_conditions":[1.6931752E0,-7.079944E-1,3.0417043E-1,-2.0876727E-1,1.3078017E0,-6.411799E-1,-7.54165E-1,-1.1043175E0,1.4640899E-1,2.9299972E0,-7.326162E-1,1.7506936E0,4.142677E0,-1.2389407E0,5.8785546E-1,-3.3565155E-1,-4.378852E-1,-1.5827959E0,-1.08841784E-1,1.1053208E0,-2.13506E-1,1.357651E0,-4.9386507E-1,1.0392432E0,3.243849E-1,2.9056954E-1,-8.0931455E-1,1.7506936E0,-4.8559117E-1,-1.0445322E0,-1.1805416E0,-4.7292802E-1,-2.826305E-1,3.460583E0,-2.7351254E-1,-7.414823E-1,2.963076E-1,5.616001E-1,4.3863624E-1,-4.9760497E-1,2.9384563E0,1.7810145E-1,8.5521936E-1,1.4185247E0,2.9299972E0,-1.5827959E0,1.7832874E0,-8.601025E-1,5.909078E-1,-2.7394676E-1,-6.815755E-1,1.6771122E0,1.7832874E0,-2.5769886E-1,1.8017837E-1,-1.1913723E0,-4.1412535E-1,-7.221524E-2,1.5685077E0,-2.6468349E-1,-1.0563295E0,-2.8466976E-1,1.0944178E0,-1.5551497E-1,4.7522187E-1,8.433671E-2,-1.0825901E0,-3.523259E-2,1.7924993E-1,-9.1023153E-1,-6.889195E-2,-6.540695E-2,1.5547752E0,1.6240755E-1,-4.9005544E-1,-1.1754595E0,-3.8583905E-1,-2.9848334E-1,5.1762754E-1,7.325458E-1,-1.2674403E-1,-5.0512936E-2,-2.9846728E-1,-3.2567728E-1,8.780661E-2,1.8455281E0,4.56634E-1,-1.0985863E0,-1.596798E-1,-5.728063E-1,-5.9769902E-2,-2.1138154E-1,4.640708E-2],"split_indices":[2,5,1,2,2,4,3,4,2,6,4,2,0,3,6,6,4,5,3,6,5,2,5,0,0,6,6,2,3,6,5,4,2,0,6,3,6,6,0,4,6,0,0,2,6,5,2,3,6,6,3,0,2,0,0,0,0,0,0,0,0,0,0,0,0,0,0,0,0,0,0,0,0,0,0,0,0,0,0,0,0,0,0,0,0,0,0,0,0,0,0,0,0],"split_type":[0,0,0,0,0,0,0,0,0,0,0,0,0,0,0,0,0,0,0,0,0,0,0,0,0,0,0,0,0,0,0,0,0,0,0,0,0,0,0,0,0,0,0,0,0,0,0,0,0,0,0,0,0,0,0,0,0,0,0,0,0,0,0,0,0,0,0,0,0,0,0,0,0,0,0,0,0,0,0,0,0,0,0,0,0,0,0,0,0,0,0,0,0],"sum_hessian":[2.38E3,2.332E3,4.8E1,5.01E2,1.831E3,4E0,4.4E1,9E1,4.11E2,1.769E3,6.2E1,3E0,1E0,2.1E1,2.3E1,2.4E1,6.6E1,4E1,3.71E2,1.626E3,1.43E2,4E0,5.8E1,1E0,2E0,9E0,1.2E1,1.9E1,4E0,6E0,1.8E1,4.7E1,1.9E1,5E0,3.5E1,2.59E2,1.12E2,1.526E3,1E2,1.2E1,1.31E2,2E0,2E0,1.4E1,4.4E1,6E0,3E0,3E0,9E0,4E0,1.5E1,2E0,2E0,2E0,4E0,9E0,9E0,4.4E1,3E0,1.5E1,4E0,1.7E1,1.8E1,1.04E2,1.55E2,8.5E1,2.7E1,1.318E3,2.08E2,3.2E1,6.8E1,3E0,9E0,1.11E2,2E1,7E0,7E0,4.2E1,2E0,3E0,3E0,1E0,2E0,1E0,2E0,6E0,3E0,2E0,2E0,3E0,1.2E1,1E0,1E0],"tree_param":{"num_deleted":"0","num_feature":"7","num_nodes":"93","size_leaf_vector":"1"}},{"base_weights":[3.581336E-2,-1.9236648E-2,7.519005E-1,6.8910657E-3,-1.2229258E0,3.2173654E-1,2.28947E0,2.1448386E-1,-1.1508425E-1,-2.3494329E-1,-4.4349647E0,1.8239173E0,-5.9578205E-3,4.3789378E-1,6.626114E0,1.1380137E-1,2.894269E0,9.8077285E-1,-1.4550684E-1,2.278475E0,-6.634093E-1,-1.2262405E0,-3.774845E0,-8.6963706E-2,9.102657E0,2.1502401E-1,-3.9089773E0,1.4780891E0,-1.8067288E0,1.07814455E1,1.3664303E0,1.7562918E-1,-1.6032729E0,1.045027E1,1.50744505E-2,1.9935332E-1,5.941987E0,-8.893368E-2,-4.1262683E-1,-1.2189003E0,1.7559878E0,3.0785382E-1,-1.6360654E0,-7.6533175E-1,1.9203044E0,7.1623254E-1,3.8350964E0,-3.2733104E0,3.839127E-1,-7.142414E0,1.7052644E0,5.709135E0,3.27947E-1,3.9923424E-1,-7.095796E-1,1.7821873E0,4.0926175E0,-1.6837968E0,3.8847785E0,-2.3960942E-2,1.8385765E-1,-2.6435798E-1,-2.1258538E0,8.956846E-1,5.1505566E0,2.971084E-1,-6.648919E-1,-6.399693E-2,6.2758535E-1,3.726846E-1,2.598309E0,-1.16845734E-1,-1.3597078E-2,-1.0413669E-1,-1.2178819E0,-9.449922E-1,-1.193145E-1,6.5896516E-3,-7.9058313E-1,7.544401E-1,-5.423061E-1,-1.8246639E-1,-1.1362582E0,9.1769254E-1,1.7968608E-2,-2.5772474E0,-4.1957763E-1,1.0565925E0,-2.892234E-1,4.124943E-1,2.008658E0,-1.260537E-1,1.1129658E0,2.035875E0,-9.3485646E-2],"categories":[],"categories_nodes":[],"categories_segments":[],"categories_sizes":[],"default_left":[0,0,0,0,0,0,0,0,0,0,0,0,0,0,0,0,0,0,0,0,0,0,0,0,0,0,0,0,0,0,0,0,0,0,0,0,0,0,0,0,0,0,0,0,0,0,0,0,0,0,0,0,0,0,0,0,0,0,0,0,0,0,0,0,0,0,0,0,0,0,0,0,0,0,0,0,0,0,0,0,0,0,0,0,0,0,0,0,0,0,0,0,0,0,0],"id":13,"left_children":[1,3,5,7,9,11,13,15,17,19,21,23,25,27,29,31,33,35,37,-1,39,41,-1,43,45,47,49,51,53,55,57,59,61,63,65,67,69,71,73,75,-1,-1,77,79,-1,-1,-1,81,83,85,87,89,91,-1,-1,-1,-1,-1,93,-1,-1,-1,-1,-1,-1,-1,-1,-1,-1,-1,-1,-1,-1,-1,-1,-1,-1,-1,-1,-1,-1,-1,-1,-1,-1,-1,-1,-1,-1,-1,-1,-1,-1,-1,-1],"loss_changes":[9.387492E1,6.957504E1,1.1170255E2,5.48704E1,1.4810962E2,6.597319E1,2.9419467E2,2.1605618E2,4.565019E1,1.2916719E2,2.7215674E2,3.3460297E2,9.657762E1,6.571135E1,2.2568088E2,8.2451706E1,6.3074316E2,1.4225665E2,2.004692E1,0E0,1.3745349E2,9.986776E0,0E0,9.292364E1,9.307321E1,6.3705532E1,1.21099495E2,9.058749E1,1.8919365E1,2.0440063E0,1.27258545E2,8.360933E1,1.0065127E2,3.4993677E2,5.0072144E1,2.6220266E1,5.313405E1,1.4373945E1,5.401418E1,5.2663357E1,0E0,0E0,1.3311678E1,6.950816E1,0E0,0E0,0E0,4.548519E0,8.822698E1,2.1262589E1,1.7943722E1,7.89447E0,4.204068E1,0E0,0E0,0E0,0E0,0E0,6.2993355E1,0E0,0E0,0E0,0E0,0E0,0E0,0E0,0E0,0E0,0E0,0E0,0E0,0E0,0E0,0E0,0E0,0E0,0E0,0E0,0E0,0E0,0E0,0E0,0E0,0E0,0E0,0E0,0E0,0E0,0E0,0E0,0E0,0E0,0E0,0E0,0E0],"parents":[2147483647,0,0,1,1,2,2,3,3,4,4,5,5,6,6,7,7,8,8,9,9,10,10,11,11,12,12,13,13,14,14,15,15,16,16,17,17,18,18,20,20,21,21,23,23,24,24,25,25,26,26,27,27,28,28,29,29,30,30,31,31,32,32,33,33,34,34,35,35,36,36,37,37,38,38,39,39,42,42,43,43,47,47,48,48,49,49,50,50,51,51,52,52,58,58],"right_children":[2,4,6,8,10,12,14,16,18,20,22,24,26,28,30,32,34,36,38,-1,40,42,-1,44,46,48,50,52,54,56,58,60,62,64,66,68,70,72,74,76,-1,-1,78,80,-1,-1,-1,82,84,86,88,90,92,-1,-1,-1,-1,-1,94,-1,-1,-1,-1,-1,-1,-1,-1,-1,-1,-1,-1,-1,-1,-1,-1,-1,-1,-1,-1,-1,-1,-1,-1,-1,-1,-1,-1,-1,-1,-1,-1,-1,-1,-1,-1],"split_conditions":[1.4367388E0,1.357651E0,5.8785546E-1,-9.4996735E-2,5.8785546E-1,-8.8057727E-1,-5.736237E-1,-1.3630567E-1,-1.8172697E0,-1.8836063E0,-7.8624463E-1,-9.2614067E-1,5.616001E-1,-1.1114676E0,-3.348914E-1,-1.6474791E-1,-6.654701E-1,1.1462709E0,5.8785546E-1,2.278475E0,5.616001E-1,1.3782618E0,-3.774845E0,5.616001E-1,-8.082794E-1,-1.5580959E0,-1.5421642E0,1.6160046E0,-8.069564E-1,-5.901706E-1,1.4448873E0,2.799024E-1,1.8097285E0,-8.1740516E-1,8.575463E-1,-1.8978418E0,-2.0157158E0,-6.467355E-1,1.1587331E0,1.3632431E0,1.7559878E0,3.0785382E-1,-1.4472346E0,-7.54165E-1,1.9203044E0,7.1623254E-1,3.8350964E0,3.0417043E-1,-1.2389407E0,1.5738244E0,3.0417043E-1,1.5258924E0,1.8767548E0,3.9923424E-1,-7.095796E-1,1.7821873E0,4.0926175E0,-1.6837968E0,1.5412307E0,-2.3960942E-2,1.8385765E-1,-2.6435798E-1,-2.1258538E0,8.956846E-1,5.1505566E0,2.971084E-1,-6.648919E-1,-6.399693E-2,6.2758535E-1,3.726846E-1,2.598309E0,-1.16845734E-1,-1.3597078E-2,-1.0413669E-1,-1.2178819E0,-9.449922E-1,-1.193145E-1,6.5896516E-3,-7.9058313E-1,7.544401E-1,-5.423061E-1,-1.8246639E-1,-1.1362582E0,9.1769254E-1,1.7968608E-2,-2.5772474E0,-4.1957763E-1,1.0565925E0,-2.892234E-1,4.124943E-1,2.008658E0,-1.260537E-1,1.1129658E0,2.035875E0,-9.3485646E-2],"split_indices":[2,2,6,5,6,4,3,5,3,5,3,4,6,5,3,5,4,2,6,0,6,2,0,6,3,3,5,2,4,4,2,6,4,4,4,3,3,3,2,2,0,0,3,3,0,0,0,1,3,2,1,2,2,0,0,0,0,0,2,0,0,0,0,0,0,0,0,0,0,0,0,0,0,0,0,0,0,0,0,0,0,0,0,0,0,0,0,0,0,0,0,0,0,0,0],"split_type":[0,0,0,0,0,0,0,0,0,0,0,0,0,0,0,0,0,0,0,0,0,0,0,0,0,0,0,0,0,0,0,0,0,0,0,0,0,0,0,0,0,0,0,0,0,0,0,0,0,0,0,0,0,0,0,0,0,0,0,0,0,0,0,0,0,0,0,0,0,0,0,0,0,0,0,0,0,0,0,0,0,0,0,0,0,0,0,0,0,0,0,0,0,0,0],"sum_hessian":[2.38E3,2.211E3,1.69E2,2.165E3,4.6E1,1.33E2,3.6E1,8.01E2,1.364E3,3.6E1,1E1,2.3E1,1.1E2,2.6E1,1E1,7.73E2,2.8E1,3.6E1,1.328E3,1E0,3.5E1,8E0,2E0,1.9E1,4E0,1.05E2,5E0,1.8E1,8E0,5E0,5E0,7.47E2,2.6E1,7E0,2.1E1,3.2E1,4E0,1.097E3,2.31E2,3.3E1,2E0,1E0,7E0,1.8E1,1E0,2E0,2E0,4E0,1.01E2,3E0,2E0,3E0,1.5E1,1E0,7E0,3E0,2E0,1E0,4E0,4.72E2,2.75E2,2.4E1,2E0,4E0,3E0,1.5E1,6E0,2.7E1,5E0,2E0,2E0,1.38E2,9.59E2,2.28E2,3E0,9E0,2.4E1,3E0,4E0,4E0,1.4E1,1E0,3E0,1E1,9.1E1,2E0,1E0,1E0,1E0,1E0,2E0,1.3E1,2E0,2E0,2E0],"tree_param":{"num_deleted":"0","num_feature":"7","num_nodes":"95","size_leaf_vector":"1"}},{"base_weights":[3.244097E-2,-1.1544567E-2,6.045796E-1,2.1991153E-1,-9.374481E-2,-6.1184937E-1,9.959396E-1,1.7807141E-2,2.271706E0,-1.0908659E0,-3.7608236E-2,-7.8372145E-1,-5.6235213E-2,3.2692113E0,6.2170005E-1,1.1247058E0,-1.2353696E-1,4.115981E0,-2.3264034E-1,-3.0291846E-1,-3.8949451E0,1.2301368E0,-6.948685E-2,-5.40058E-1,-1.9914922E0,-2.7952096E-1,1.2448857E-1,5.601838E0,3.1415844E-1,1.1080706E0,-1.3085197E0,2.5440705E0,1.7363937E-1,4.5423065E-3,-2.503866E0,7.8568587E0,7.9314244E-1,7.3382986E-1,-5.006831E0,-1.8729439E0,2.4637721E-1,-1.9925978E0,-1.0530598E1,-4.955677E-1,6.8458033E0,-2.306387E0,-3.0275475E-2,-8.122203E-1,1.24753386E-1,-7.8524965E-1,-2.1049653E-1,1.3533798E-1,3.8070288E-2,6.965723E0,-1.0009693E0,-3.9499152E-1,8.981038E-1,-6.260211E-1,1.6783065E0,-1.8895566E0,1.9237952E0,-1.7800636E-3,1.3097777E0,-4.9215253E-2,9.001789E-1,-1.2673101E-2,1.0351058E0,-3.248262E-1,-9.44025E-1,-4.1299644E-1,3.1500719E0,9.422163E-1,-1.2102616E0,9.951468E-1,-1.8307485E-1,-4.4967356E-1,-1.7029504E0,-4.497479E-2,-1.0737944E0,4.056313E-1,-1.1363265E-1,6.480533E-3,-1.9284471E0,-4.1194587E0,-1.4659337E0,-6.64042E-1,1.8465237E-1,1.2915404E-1,3.56758E0,-3.3164364E-1,-1.8375502E0,2.0282576E0,-1.8719086E-2,5.6715447E-2,-2.6246065E-1,2.792508E-1,-7.155975E-2,7.299316E-2,-3.1530473E-2,5.2953434E-1,2.4598358E0,9.41696E-2,-3.547069E-1,3.7367675E-1,-7.336389E-1,1.0488591E0,2.544044E-1,-1.1102468E0,-1.1209331E-1,8.952557E-1,-1.8860637E-1],"categories":[],"categories_nodes":[],"categories_segments":[],"categories_sizes":[],"default_left":[0,0,0,0,0,0,0,0,0,0,0,0,0,0,0,0,0,0,0,0,0,0,0,0,0,0,0,0,0,0,0,0,0,0,0,0,0,0,0,0,0,0,0,0,0,0,0,0,0,0,0,0,0,0,0,0,0,0,0,0,0,0,0,0,0,0,0,0,0,0,0,0,0,0,0,0,0,0,0,0,0,0,0,0,0,0,0,0,0,0,0,0,0,0,0,0,0,0,0,0,0,0,0,0,0,0,0,0,0,0,0],"id":14,"left_children":[1,3,5,7,9,11,13,15,17,19,21,23,25,27,29,31,33,35,37,39,41,43,45,47,49,-1,51,53,55,57,59,61,63,65,67,69,71,73,75,77,79,81,83,85,87,89,91,93,95,-1,-1,-1,97,99,-1,101,-1,103,105,107,109,-1,-1,-1,-1,-1,-1,-1,-1,-1,-1,-1,-1,-1,-1,-1,-1,-1,-1,-1,-1,-1,-1,-1,-1,-1,-1,-1,-1,-1,-1,-1,-1,-1,-1,-1,-1,-1,-1,-1,-1,-1,-1,-1,-1,-1,-1,-1,-1,-1,-1],"loss_changes":[5.992681E1,4.2105568E1,8.153985E1,2.4047203E2,9.136607E1,3.9666986E0,1.0771406E2,8.29029E1,2.4113016E2,1.9104376E2,6.260586E1,8.341742E0,1.8564535E0,1.2231474E2,1.0659577E2,8.055285E1,1.4330063E2,3.6667834E2,1.09798775E2,5.9967613E1,2.188598E2,3.716498E2,1.3237515E2,5.167552E0,2.2006512E0,0E0,2.6510045E-1,1.4515112E2,1.8284115E1,9.004638E1,4.6831303E1,1.11523636E2,3.581377E1,7.220913E1,1.8519485E1,3.5616296E2,2.0532413E2,7.146819E1,8.880081E-1,5.2385643E1,3.6457054E1,1.4308447E2,5.1677856E0,5.86241E1,2.8623178E2,1.12464874E2,3.243616E2,1.4199591E0,2.8575804E0,0E0,0E0,0E0,2.9003394E-1,4.327231E1,0E0,4.8363814E0,0E0,8.136762E1,9.967297E1,5.3531616E1,1.2702634E1,0E0,0E0,0E0,0E0,0E0,0E0,0E0,0E0,0E0,0E0,0E0,0E0,0E0,0E0,0E0,0E0,0E0,0E0,0E0,0E0,0E0,0E0,0E0,0E0,0E0,0E0,0E0,0E0,0E0,0E0,0E0,0E0,0E0,0E0,0E0,0E0,0E0,0E0,0E0,0E0,0E0,0E0,0E0,0E0,0E0,0E0,0E0,0E0,0E0,0E0],"parents":[2147483647,0,0,1,1,2,2,3,3,4,4,5,5,6,6,7,7,8,8,9,9,10,10,11,11,12,12,13,13,14,14,15,15,16,16,17,17,18,18,19,19,20,20,21,21,22,22,23,23,24,24,26,26,27,27,28,28,29,29,30,30,31,31,32,32,33,33,34,34,35,35,36,36,37,37,38,38,39,39,40,40,41,41,42,42,43,43,44,44,45,45,46,46,47,47,48,48,52,52,53,53,55,55,57,57,58,58,59,59,60,60],"right_children":[2,4,6,8,10,12,14,16,18,20,22,24,26,28,30,32,34,36,38,40,42,44,46,48,50,-1,52,54,56,58,60,62,64,66,68,70,72,74,76,78,80,82,84,86,88,90,92,94,96,-1,-1,-1,98,100,-1,102,-1,104,106,108,110,-1,-1,-1,-1,-1,-1,-1,-1,-1,-1,-1,-1,-1,-1,-1,-1,-1,-1,-1,-1,-1,-1,-1,-1,-1,-1,-1,-1,-1,-1,-1,-1,-1,-1,-1,-1,-1,-1,-1,-1,-1,-1,-1,-1,-1,-1,-1,-1,-1,-1],"split_conditions":[1.4367388E0,-4.5977536E-1,-8.0931455E-1,6.324396E-1,-1.1602257E0,1.6931752E0,3.0417043E-1,-9.437387E-1,-5.5887586E-1,5.616001E-1,-1.0180146E0,1.6399707E0,-8.601025E-1,-1.0312877E0,2.093471E-1,3.0417043E-1,1.1053208E0,7.6492375E-1,3.492258E-1,-6.467355E-1,-3.7452963E-1,5.616001E-1,-9.1643524E-1,-3.4018305E-1,-5.798158E-1,-2.7952096E-1,3.0417043E-1,-3.2146272E-1,-5.798158E-1,-1.0533264E0,1.6931752E0,-4.9760497E-1,1.0871303E0,5.934134E-1,-3.5197216E-1,-5.1043427E-1,-7.92568E-1,-5.4316837E-1,4.462605E-1,-6.978054E-1,-3.6781657E-1,-1.2046304E0,8.852681E-3,-6.584483E-1,-8.796984E-1,5.616001E-1,-8.96932E-1,-1.2745807E0,-1.8513599E-1,-7.8524965E-1,-2.1049653E-1,1.3533798E-1,-6.661573E-1,-2.8148758E-1,-1.0009693E0,2.8353047E-1,8.981038E-1,-1.3227527E0,1.5412307E0,-1.2286226E0,-5.9451276E-1,-1.7800636E-3,1.3097777E0,-4.9215253E-2,9.001789E-1,-1.2673101E-2,1.0351058E0,-3.248262E-1,-9.44025E-1,-4.1299644E-1,3.1500719E0,9.422163E-1,-1.2102616E0,9.951468E-1,-1.8307485E-1,-4.4967356E-1,-1.7029504E0,-4.497479E-2,-1.0737944E0,4.056313E-1,-1.1363265E-1,6.480533E-3,-1.9284471E0,-4.1194587E0,-1.4659337E0,-6.64042E-1,1.8465237E-1,1.2915404E-1,3.56758E0,-3.3164364E-1,-1.8375502E0,2.0282576E0,-1.8719086E-2,5.6715447E-2,-2.6246065E-1,2.792508E-1,-7.155975E-2,7.299316E-2,-3.1530473E-2,5.2953434E-1,2.4598358E0,9.41696E-2,-3.547069E-1,3.7367675E-1,-7.336389E-1,1.0488591E0,2.544044E-1,-1.1102468E0,-1.1209331E-1,8.952557E-1,-1.8860637E-1],"split_indices":[2,0,6,2,5,2,1,3,5,6,5,2,3,5,4,1,6,2,3,3,4,6,5,4,3,0,1,3,3,3,2,4,5,6,2,3,4,4,3,4,3,5,4,3,3,6,5,4,4,0,0,0,3,6,0,6,0,5,2,5,3,0,0,0,0,0,0,0,0,0,0,0,0,0,0,0,0,0,0,0,0,0,0,0,0,0,0,0,0,0,0,0,0,0,0,0,0,0,0,0,0,0,0,0,0,0,0,0,0,0,0],"split_type":[0,0,0,0,0,0,0,0,0,0,0,0,0,0,0,0,0,0,0,0,0,0,0,0,0,0,0,0,0,0,0,0,0,0,0,0,0,0,0,0,0,0,0,0,0,0,0,0,0,0,0,0,0,0,0,0,0,0,0,0,0,0,0,0,0,0,0,0,0,0,0,0,0,0,0,0,0,0,0,0,0,0,0,0,0,0,0,0,0,0,0,0,0,0,0,0,0,0,0,0,0,0,0,0,0,0,0,0,0,0,0],"sum_hessian":[2.38E3,2.211E3,1.69E2,5.79E2,1.632E3,4.1E1,1.28E2,5.28E2,5.1E1,8.6E1,1.546E3,3.1E1,1E1,1.7E1,1.11E2,5.9E1,4.69E2,2.9E1,2.2E1,6.8E1,1.8E1,3.7E1,1.509E3,2.7E1,4E0,1E0,9E0,9E0,8E0,8.9E1,2.2E1,2.3E1,3.6E1,4.46E2,2.3E1,1.3E1,1.6E1,1.9E1,3E0,1.7E1,5.1E1,1.5E1,3E0,2.9E1,8E0,2.5E1,1.484E3,1.9E1,8E0,2E0,2E0,1E0,8E0,8E0,1E0,7E0,1E0,2.2E1,6.7E1,1.9E1,3E0,1E1,1.3E1,3.3E1,3E0,4.41E2,5E0,8E0,1.5E1,3E0,1E1,1.1E1,5E0,6E0,1.3E1,1E0,2E0,9E0,8E0,1.8E1,3.3E1,1.1E1,4E0,1E0,2E0,1.1E1,1.8E1,4E0,4E0,2E1,5E0,6E0,1.478E3,1E0,1.8E1,2E0,6E0,3E0,5E0,2E0,6E0,4E0,3E0,1.1E1,1.1E1,2E1,4.7E1,8E0,1.1E1,2E0,1E0],"tree_param":{"num_deleted":"0","num_feature":"7","num_nodes":"111","size_leaf_vector":"1"}},{"base_weights":[2.2591759E-2,8.373052E-3,1.1365852E0,1.4219393E-1,-8.8156395E-2,5.92236E-1,2.5384073E0,2.7682256E-2,1.0538716E0,1.1926953E-1,-2.2374198E-1,1.4656549E0,-3.2066527E-1,1.6901082E0,-4.1371822E-2,1.5829618E0,-2.1534681E0,-2.52522E-1,6.841838E-1,-1.0451156E0,-5.6276783E-2,-1.1513533E-1,2.5323076E0,-1.4038925E0,6.713257E-2,-7.2998834E-1,4.2955036E0,-3.1911805E-1,2.4857974E-1,8.0026287E-1,5.397521E0,-1.6499889E0,-1.2825432E0,-1.6998591E0,-9.519999E-2,-1.5363666E0,1.0386586E0,-1.2551808E0,1.9232694E0,5.0508175E0,-1.1618938E-1,1.8216857E-1,-5.2552664E-1,3.4802585E0,-5.236798E-1,-4.8703465E-1,-1.117836E-1,-6.8126553E-1,5.264898E-1,-3.1664133E-1,7.6930493E-1,2.5468552E0,-1.12736486E-1,4.0215105E-2,-3.6139375E-1,9.77104E-1,3.0972293E-2,-2.6144576E-1,4.5968667E-1,-4.2687467E-1,2.124277E0,4.1699904E-1,-4.785138E-1,-8.913246E-2,-8.3231455E-1,2.6824763E-1,-4.424636E-2,1.532469E-1,-1.0078752E0,2.3789237E-1,1.9218023E0,-1.284349E-1,-1.2208195E0,4.5972033E0,-2.782746E-1,-2.4691777E-2,-6.5175533E-1,-2.97303E-1,2.0046102E-1,-2.265667E-1,1.2936127E0,-2.3759282E-1,1.9369127E-3,-3.1272393E-1,-2.790884E-2,3.4574922E-2,3.5204202E-1],"categories":[],"categories_nodes":[],"categories_segments":[],"categories_sizes":[],"default_left":[0,0,0,0,0,0,0,0,0,0,0,0,0,0,0,0,0,0,0,0,0,0,0,0,0,0,0,0,0,0,0,0,0,0,0,0,0,0,0,0,0,0,0,0,0,0,0,0,0,0,0,0,0,0,0,0,0,0,0,0,0,0,0,0,0,0,0,0,0,0,0,0,0,0,0,0,0,0,0,0,0,0,0,0,0,0,0],"id":15,"left_children":[1,3,5,7,9,11,-1,13,15,17,19,21,23,25,27,29,31,33,35,37,39,41,43,45,47,49,51,53,55,57,59,-1,61,63,65,67,69,71,-1,73,75,-1,77,79,81,-1,-1,83,85,-1,-1,-1,-1,-1,-1,-1,-1,-1,-1,-1,-1,-1,-1,-1,-1,-1,-1,-1,-1,-1,-1,-1,-1,-1,-1,-1,-1,-1,-1,-1,-1,-1,-1,-1,-1,-1,-1],"loss_changes":[3.770444E1,3.0394861E1,1.1460591E2,1.02907E2,3.8472145E1,2.3592995E1,0E0,1.0074715E2,1.9007578E2,1.13799164E2,1.1369627E2,2.5583874E1,6.395345E0,2.238215E2,6.796861E1,2.7931747E2,3.9578804E1,7.429541E1,1.7082855E2,2.2732172E2,2.111006E2,2.3942778E0,2.7894875E1,3.0077887E-1,4.484064E0,2.3079342E1,3.3624515E2,1.7311885E2,1.802447E2,9.923644E1,1.9378015E2,0E0,1.39095745E1,4.740892E1,1.5444393E1,1.1369031E2,2.4019319E2,3.171307E2,0E0,5.055523E2,4.7270218E1,0E0,3.4405034E0,2.791758E1,4.3181396E-1,0E0,0E0,9.652252E-1,1.9932823E0,0E0,0E0,0E0,0E0,0E0,0E0,0E0,0E0,0E0,0E0,0E0,0E0,0E0,0E0,0E0,0E0,0E0,0E0,0E0,0E0,0E0,0E0,0E0,0E0,0E0,0E0,0E0,0E0,0E0,0E0,0E0,0E0,0E0,0E0,0E0,0E0,0E0,0E0],"parents":[2147483647,0,0,1,1,2,2,3,3,4,4,5,5,7,7,8,8,9,9,10,10,11,11,12,12,13,13,14,14,15,15,16,16,17,17,18,18,19,19,20,20,21,21,22,22,23,23,24,24,25,25,26,26,27,27,28,28,29,29,30,30,32,32,33,33,34,34,35,35,36,36,37,37,39,39,40,40,42,42,43,43,44,44,47,47,48,48],"right_children":[2,4,6,8,10,12,-1,14,16,18,20,22,24,26,28,30,32,34,36,38,40,42,44,46,48,50,52,54,56,58,60,-1,62,64,66,68,70,72,-1,74,76,-1,78,80,82,-1,-1,84,86,-1,-1,-1,-1,-1,-1,-1,-1,-1,-1,-1,-1,-1,-1,-1,-1,-1,-1,-1,-1,-1,-1,-1,-1,-1,-1,-1,-1,-1,-1,-1,-1,-1,-1,-1,-1,-1,-1],"split_conditions":[1.7832874E0,3.0417043E-1,-1.6232922E0,1.0878577E0,-3.5898083E-1,-7.54165E-1,2.5384073E0,-1.5096588E0,1.1053208E0,2.4323165E-1,-4.9386507E-1,-1.0637709E0,-6.815755E-1,-2.8148758E-1,-2.7311435E-1,5.616001E-1,-1.7793461E0,-7.660978E-1,-9.437387E-1,2.9299972E0,-4.6542284E-1,2.9056954E-1,-6.98196E-2,-7.255171E-1,-8.26141E-1,-1.5421642E0,2.7342883E-1,-1.3015875E-1,-8.96932E-1,-9.2917806E-1,-9.9949855E-1,-1.6499889E0,1.101726E0,-2.8148758E-1,-1.2745807E0,-6.792397E-1,-3.8297704E-1,5.616001E-1,1.9232694E0,-4.9116158E-1,2.9384563E0,1.8216857E-1,1.8767548E0,-1.2194251E0,-8.601025E-1,-4.8703465E-1,-1.117836E-1,1.80965E0,-1.0444937E0,-3.1664133E-1,7.6930493E-1,2.5468552E0,-1.12736486E-1,4.0215105E-2,-3.6139375E-1,9.77104E-1,3.0972293E-2,-2.6144576E-1,4.5968667E-1,-4.2687467E-1,2.124277E0,4.1699904E-1,-4.785138E-1,-8.913246E-2,-8.3231455E-1,2.6824763E-1,-4.424636E-2,1.532469E-1,-1.0078752E0,2.3789237E-1,1.9218023E0,-1.284349E-1,-1.2208195E0,4.5972033E0,-2.782746E-1,-2.4691777E-2,-6.5175533E-1,-2.97303E-1,2.0046102E-1,-2.265667E-1,1.2936127E0,-2.3759282E-1,1.9369127E-3,-3.1272393E-1,-2.790884E-2,3.4574922E-2,3.5204202E-1],"split_indices":[2,1,5,2,4,3,0,5,6,2,5,3,3,6,4,6,3,5,3,6,5,6,4,3,4,5,2,2,5,6,4,0,2,6,4,4,4,6,0,3,6,0,2,4,3,0,0,2,6,0,0,0,0,0,0,0,0,0,0,0,0,0,0,0,0,0,0,0,0,0,0,0,0,0,0,0,0,0,0,0,0,0,0,0,0,0,0],"split_type":[0,0,0,0,0,0,0,0,0,0,0,0,0,0,0,0,0,0,0,0,0,0,0,0,0,0,0,0,0,0,0,0,0,0,0,0,0,0,0,0,0,0,0,0,0,0,0,0,0,0,0,0,0,0,0,0,0,0,0,0,0,0,0,0,0,0,0,0,0,0,0,0,0,0,0,0,0,0,0,0,0,0,0,0,0,0,0],"sum_hessian":[2.38E3,2.351E3,2.9E1,9.85E2,1.366E3,2.8E1,1E0,8.76E2,1.09E2,5.4E2,8.26E2,1.4E1,1.4E1,3.4E1,8.42E2,9.4E1,1.5E1,3.26E2,2.14E2,1.39E2,6.87E2,6E0,8E0,3E0,1.1E1,1.8E1,1.6E1,4.3E2,4.12E2,7.9E1,1.5E1,2E0,1.3E1,3.1E1,2.95E2,2.9E1,1.85E2,1.36E2,3E0,7E0,6.8E2,2E0,4E0,6E0,2E0,2E0,1E0,4E0,7E0,1.7E1,1E0,8E0,8E0,2.85E2,1.45E2,1.8E1,3.94E2,2.4E1,5.5E1,3E0,1.2E1,1E0,1.2E1,1.4E1,1.7E1,1.4E1,2.81E2,1.4E1,1.5E1,1.78E2,7E0,1.06E2,3E1,2E0,5E0,6.7E2,1E1,3E0,1E0,1E0,5E0,1E0,1E0,2E0,2E0,5E0,2E0],"tree_param":{"num_deleted":"0","num_feature":"7","num_nodes":"87","size_leaf_vector":"1"}},{"base_weights":[2.0637525E-2,1.3495746E-1,-9.010926E-2,-1.1446966E-1,3.79522E-1,8.299522E-3,-4.1699663E-1,2.1751721E-1,-7.0201564E-1,9.3479973E-1,-1.8649012E-1,-2.8087387E-2,2.5799358E0,-1.632309E0,-1.1836137E-2,-2.052926E-1,1.6475374E0,-1.8451992E0,-1.5349463E-1,1.6703293E0,-7.450275E-2,-8.4528214E-1,2.92321E-1,-4.1655633E-1,3.1337798E-2,4.768362E0,6.1612374E-1,-3.3357375E0,-2.2879794E-2,2.398526E0,-8.803618E-2,-7.798793E-1,-1.7214853E-2,-5.7848465E-1,3.0024655E0,-8.660033E-1,-2.919732E0,5.4229308E-2,-8.757317E-1,8.989358E-1,3.844539E0,7.5506456E-2,-2.3153281E0,-1.0779952E0,4.9750036E-1,3.879904E-1,-1.4728385E0,-1.4207332E-1,-1.2918959E0,4.43235E-1,-3.308512E-2,2.6302815E-3,1.7155584E0,5.504155E-1,-9.58608E-2,-1.1251664E0,-5.4801226E0,-9.5087755E-1,4.930255E0,8.066166E-1,-4.946503E-1,-8.364064E-2,-4.1455638E-1,1.2958717E0,-2.3210494E-2,-3.717312E-1,6.156778E-1,3.4406126E-1,1.5590569E0,-8.777431E-1,1.575478E-3,-3.4622702E-1,-1.2201185E0,6.734241E-1,-1.8015234E-3,-3.1883946E-1,3.8605306E-1,3.619785E-1,-2.7051191E0,5.907831E0,9.1103673E-1,-5.052511E-2,4.401288E-1,-2.6720816E-1,-1.0551866E0,-5.150788E-2,-4.51076E-1,-2.0097761E-1,3.702978E-1,5.553746E-2,1.0419962E0,-1.1793381E0,-6.266429E-2,-1.5922223E-1,2.0126868E-2,-7.708684E-2,-8.886222E-1,-3.3529967E-2,3.581131E-1,-1.9247922E-1,1.3953908E-2,1.476017E-1,-9.355056E-2,-1.2325069E0,6.18824E-3,4.234639E-3,-1.8640887E0,-9.5514596E-1,3.6199474E-1,5.229318E-1,1.8264159E0,7.1014106E-2,2.313627E0,-8.3515435E-1,-9.680694E-2],"categories":[],"categories_nodes":[],"categories_segments":[],"categories_sizes":[],"default_left":[0,0,0,0,0,0,0,0,0,0,0,0,0,0,0,0,0,0,0,0,0,0,0,0,0,0,0,0,0,0,0,0,0,0,0,0,0,0,0,0,0,0,0,0,0,0,0,0,0,0,0,0,0,0,0,0,0,0,0,0,0,0,0,0,0,0,0,0,0,0,0,0,0,0,0,0,0,0,0,0,0,0,0,0,0,0,0,0,0,0,0,0,0,0,0,0,0,0,0,0,0,0,0,0,0,0,0,0,0,0,0,0,0,0,0],"id":16,"left_children":[1,3,5,7,9,11,13,15,17,19,21,23,25,27,29,31,33,35,37,39,41,43,45,47,49,51,53,55,57,-1,59,61,63,65,67,69,71,73,75,77,79,81,83,85,87,89,91,93,95,97,99,-1,-1,-1,101,103,105,107,109,111,113,-1,-1,-1,-1,-1,-1,-1,-1,-1,-1,-1,-1,-1,-1,-1,-1,-1,-1,-1,-1,-1,-1,-1,-1,-1,-1,-1,-1,-1,-1,-1,-1,-1,-1,-1,-1,-1,-1,-1,-1,-1,-1,-1,-1,-1,-1,-1,-1,-1,-1,-1,-1,-1,-1],"loss_changes":[3.0156965E1,7.153665E1,3.892745E1,1.1348114E2,1.8623633E2,8.718975E1,1.3785172E2,2.2525931E2,1.3139941E2,2.220936E2,9.298554E1,2.1228022E1,5.2931656E1,1.9183203E2,1.2944083E2,3.110986E1,2.5810535E2,6.901964E1,2.15012E1,2.8669464E2,4.286516E1,3.928421E1,2.944852E1,2.9128885E1,2.1190088E1,2.7084274E1,7.1168413E0,1.550047E2,1.7475848E2,0E0,7.6792465E1,2.1030891E1,5.720446E1,5.9894333E1,2.0985052E2,6.64162E1,6.013098E1,1.4791263E1,1.4313103E1,4.0442645E2,5.162605E2,4.0980045E1,1.05660095E1,4.062758E1,1.7170498E1,1.0137987E2,2.714341E1,7.677317E0,4.9366352E1,4.5117035E1,3.3499428E1,0E0,0E0,0E0,9.1520923E-1,6.161091E1,6.859866E1,1.5800597E2,1.152832E1,2.579141E2,5.618115E1,0E0,0E0,0E0,0E0,0E0,0E0,0E0,0E0,0E0,0E0,0E0,0E0,0E0,0E0,0E0,0E0,0E0,0E0,0E0,0E0,0E0,0E0,0E0,0E0,0E0,0E0,0E0,0E0,0E0,0E0,0E0,0E0,0E0,0E0,0E0,0E0,0E0,0E0,0E0,0E0,0E0,0E0,0E0,0E0,0E0,0E0,0E0,0E0,0E0,0E0,0E0,0E0,0E0,0E0],"parents":[2147483647,0,0,1,1,2,2,3,3,4,4,5,5,6,6,7,7,8,8,9,9,10,10,11,11,12,12,13,13,14,14,15,15,16,16,17,17,18,18,19,19,20,20,21,21,22,22,23,23,24,24,25,25,26,26,27,27,28,28,30,30,31,31,32,32,33,33,34,34,35,35,36,36,37,37,38,38,39,39,40,40,41,41,42,42,43,43,44,44,45,45,46,46,47,47,48,48,49,49,50,50,54,54,55,55,56,56,57,57,58,58,59,59,60,60],"right_children":[2,4,6,8,10,12,14,16,18,20,22,24,26,28,30,32,34,36,38,40,42,44,46,48,50,52,54,56,58,-1,60,62,64,66,68,70,72,74,76,78,80,82,84,86,88,90,92,94,96,98,100,-1,-1,-1,102,104,106,108,110,112,114,-1,-1,-1,-1,-1,-1,-1,-1,-1,-1,-1,-1,-1,-1,-1,-1,-1,-1,-1,-1,-1,-1,-1,-1,-1,-1,-1,-1,-1,-1,-1,-1,-1,-1,-1,-1,-1,-1,-1,-1,-1,-1,-1,-1,-1,-1,-1,-1,-1,-1,-1,-1,-1,-1],"split_conditions":[-1.2898482E-1,2.799024E-1,2.963076E-1,-2.2084098E-1,5.934134E-1,2.9056954E-1,-4.1666475E-1,-2.7394676E-1,-4.6542284E-1,-9.4996735E-2,1.1060911E0,5.9016854E-2,-4.5977536E-1,5.8785546E-1,-3.9039922E-1,-1.2286226E0,-6.280845E-1,-5.4602027E-1,4.748525E-1,4.737657E-2,-1.4810827E-1,1.4448873E0,1.3078017E0,8.2272977E-1,-8.532934E-1,-4.5796582E-1,-5.3128904E-1,-9.895724E-1,6.012127E-1,2.398526E0,2.4582487E-1,-1.7737651E0,-1.2046304E0,1.5258924E0,5.549176E-1,-1.0354215E0,2.0523755E-1,-4.5787695E-1,1.3193054E0,-5.3036883E-3,6.1068796E-2,1.3237705E0,-3.8891807E-1,-5.3721344E-1,-1.259233E0,1.1462709E0,1.3327264E0,-4.5977536E-1,-8.084011E-1,-2.4399729E-1,-6.627626E-1,2.6302815E-3,1.7155584E0,5.504155E-1,-1.1079719E0,-1.5421642E0,-5.282981E-1,-8.96932E-1,-2.7321985E-1,2.1262082E-1,-2.3788504E-1,-8.364064E-2,-4.1455638E-1,1.2958717E0,-2.3210494E-2,-3.717312E-1,6.156778E-1,3.4406126E-1,1.5590569E0,-8.777431E-1,1.575478E-3,-3.4622702E-1,-1.2201185E0,6.734241E-1,-1.8015234E-3,-3.1883946E-1,3.8605306E-1,3.619785E-1,-2.7051191E0,5.907831E0,9.1103673E-1,-5.052511E-2,4.401288E-1,-2.6720816E-1,-1.0551866E0,-5.150788E-2,-4.51076E-1,-2.0097761E-1,3.702978E-1,5.553746E-2,1.0419962E0,-1.1793381E0,-6.266429E-2,-1.5922223E-1,2.0126868E-2,-7.708684E-2,-8.886222E-1,-3.3529967E-2,3.581131E-1,-1.9247922E-1,1.3953908E-2,1.476017E-1,-9.355056E-2,-1.2325069E0,6.18824E-3,4.234639E-3,-1.8640887E0,-9.5514596E-1,3.6199474E-1,5.229318E-1,1.8264159E0,7.1014106E-2,2.313627E0,-8.3515435E-1,-9.680694E-2],"split_indices":[3,6,6,6,6,6,5,6,5,5,6,3,0,6,5,5,3,3,4,4,3,2,2,2,4,2,1,5,3,0,3,5,5,2,2,3,2,5,2,4,4,4,4,2,3,2,2,0,6,2,4,0,0,0,2,5,2,5,2,3,5,0,0,0,0,0,0,0,0,0,0,0,0,0,0,0,0,0,0,0,0,0,0,0,0,0,0,0,0,0,0,0,0,0,0,0,0,0,0,0,0,0,0,0,0,0,0,0,0,0,0,0,0,0,0],"split_type":[0,0,0,0,0,0,0,0,0,0,0,0,0,0,0,0,0,0,0,0,0,0,0,0,0,0,0,0,0,0,0,0,0,0,0,0,0,0,0,0,0,0,0,0,0,0,0,0,0,0,0,0,0,0,0,0,0,0,0,0,0,0,0,0,0,0,0,0,0,0,0,0,0,0,0,0,0,0,0,0,0,0,0,0,0,0,0,0,0,0,0,0,0,0,0,0,0,0,0,0,0,0,0,0,0,0,0,0,0,0,0,0,0,0,0],"sum_hessian":[2.38E3,1.171E3,1.209E3,5.8E2,5.91E2,9.3E2,2.79E2,3.71E2,2.09E2,2.98E2,2.93E2,9.18E2,1.2E1,6.9E1,2.1E2,2.87E2,8.4E1,6.7E1,1.42E2,1.72E2,1.26E2,1.23E2,1.7E2,1.21E2,7.97E2,5E0,7E0,3.3E1,3.6E1,1E0,2.09E2,7E1,2.17E2,3.2E1,5.2E1,3.6E1,3.1E1,1.11E2,3.1E1,1.28E2,4.4E1,1.19E2,7E0,1.05E2,1.8E1,1.62E2,8E0,9.3E1,2.8E1,1.07E2,6.9E2,1E0,4E0,2E0,5E0,1.7E1,1.6E1,3.1E1,5E0,6.5E1,1.44E2,3.9E1,3.1E1,2E0,2.15E2,2.6E1,6E0,2.9E1,2.3E1,1E1,2.6E1,1.3E1,1.8E1,2E0,1.09E2,2.9E1,2E0,1.25E2,3E0,1E0,4.3E1,1.02E2,1.7E1,4E0,3E0,3.4E1,7.1E1,7E0,1.1E1,1.53E2,9E0,2E0,6E0,3.2E1,6.1E1,1.8E1,1E1,6.2E1,4.5E1,7.9E1,6.11E2,1E0,4E0,4E0,1.3E1,2E0,1.4E1,1.5E1,1.6E1,2E0,3E0,6.1E1,4E0,9E0,1.35E2],"tree_param":{"num_deleted":"0","num_feature":"7","num_nodes":"115","size_leaf_vector":"1"}},{"base_weights":[1.7876863E-2,1.9425933E-1,-3.8904328E-2,-2.405954E-1,5.5329245E-1,-7.2846815E-2,3.5840115E-1,4.065111E0,-3.397956E-1,-4.0116972E-1,9.4958645E-1,-7.929858E-1,-2.767644E-2,3.7138823E-2,1.4615798E0,1.6796136E0,2.39889E0,-2.966228E0,-2.1081993E-1,-2.634806E-1,-1.4161439E0,2.3742924E0,4.289121E-1,-2.5119948E-1,-2.7675738E0,1.8345424E0,-4.5680057E-2,7.3646003E-1,-8.000324E-1,-6.201914E-2,4.375907E0,4.3256274E-1,7.1003807E-1,-1.4814695E0,-1.3629471E0,-3.0408764E-1,1.6410134E0,1.4360254E-1,-4.6958652E-1,-1.723305E0,-6.783812E-3,5.365633E0,1.7412003E0,-2.2425828E0,8.742755E-1,-1.1702379E0,6.4596586E-2,-1.2345828E0,-7.4262285E0,-2.4323964E-1,4.9917555E0,-6.7688623E-3,-7.512823E-1,1.0961388E0,-1.4634776E0,9.118551E-2,-3.4121451E0,3.2889163E-1,-7.9422545E-1,5.3528156E0,-1.3454477E-2,1.0875356E-2,1.8377788E-1,-8.4584767E-1,2.2463465E-2,-6.218653E-1,-6.9879904E-2,1.5779132E0,-2.4773967E-1,-1.576773E-1,1.0230797E-1,1.84007E-1,-1.6273738E-1,-8.1861556E-2,-6.2961984E-1,2.2493525E0,-6.326397E-1,-9.6112937E-1,6.690641E-1,2.2110315E-1,-1.2238418E0,1.4969485E-1,1.7447313E0,5.565035E-2,-6.8890285E-1,7.0980705E-2,-7.0789003E-1,2.7625448E-1,-1.1323646E0,-2.5001159E0,-5.6944E-1,-2.1953598E-1,6.230524E-1,2.4457864E-1,2.062856E0,2.5054514E-1,-9.817138E-3,-6.924094E-1,-9.97723E-2,1.6648945E-1,9.3359655E-1,1.7927791E-1,-6.413176E-1,-8.8504404E-2,2.215019E0,-1.6066884E0,-2.9436412E-1,-1.6896749E-1,3.3300224E-1,1.7184073E0,3.52672E-1,2.9995376E-2,-3.604989E-2],"categories":[],"categories_nodes":[],"categories_segments":[],"categories_sizes":[],"default_left":[0,0,0,0,0,0,0,0,0,0,0,0,0,0,0,0,0,0,0,0,0,0,0,0,0,0,0,0,0,0,0,0,0,0,0,0,0,0,0,0,0,0,0,0,0,0,0,0,0,0,0,0,0,0,0,0,0,0,0,0,0,0,0,0,0,0,0,0,0,0,0,0,0,0,0,0,0,0,0,0,0,0,0,0,0,0,0,0,0,0,0,0,0,0,0,0,0,0,0,0,0,0,0,0,0,0,0,0,0,0,0,0,0],"id":17,"left_children":[1,3,5,7,9,11,13,15,17,19,21,23,25,27,29,31,-1,33,35,37,39,41,43,45,47,49,51,53,55,57,59,61,-1,-1,63,65,67,69,71,73,-1,75,77,79,81,83,85,87,89,91,93,95,97,99,101,103,105,107,-1,109,111,-1,-1,-1,-1,-1,-1,-1,-1,-1,-1,-1,-1,-1,-1,-1,-1,-1,-1,-1,-1,-1,-1,-1,-1,-1,-1,-1,-1,-1,-1,-1,-1,-1,-1,-1,-1,-1,-1,-1,-1,-1,-1,-1,-1,-1,-1,-1,-1,-1,-1,-1,-1],"loss_changes":[2.3853764E1,9.0686935E1,2.4327047E1,1.1371567E2,1.2066369E2,5.400864E1,5.0271904E1,4.2836357E1,8.677108E1,1.276346E1,1.6588843E2,1.04145645E2,5.2519527E1,6.557432E1,1.423599E2,3.260953E0,0E0,3.1209557E1,4.315993E1,7.115222E0,4.6694546E0,1.04285E2,1.9946512E2,2.2713434E1,1.4080688E2,9.9614204E1,4.2551445E1,4.9871708E1,1.190372E2,2.3105242E1,4.7240067E1,1.9183695E-1,0E0,0E0,1.6965176E1,2.9219662E1,1.1146322E2,4.0105715E0,4.751996E0,4.3281097E0,0E0,1.7518185E2,1.3047092E2,1.3436304E2,2.6229254E2,3.0960066E1,2.5160206E1,9.654606E1,9.264954E0,1.2854489E1,4.1615982E1,3.2149704E1,5.2030087E1,5.6091995E1,1.378454E1,1.1201208E2,5.61631E1,1.4562111E1,0E0,7.372345E0,4.8330646E-2,0E0,0E0,0E0,0E0,0E0,0E0,0E0,0E0,0E0,0E0,0E0,0E0,0E0,0E0,0E0,0E0,0E0,0E0,0E0,0E0,0E0,0E0,0E0,0E0,0E0,0E0,0E0,0E0,0E0,0E0,0E0,0E0,0E0,0E0,0E0,0E0,0E0,0E0,0E0,0E0,0E0,0E0,0E0,0E0,0E0,0E0,0E0,0E0,0E0,0E0,0E0,0E0],"parents":[2147483647,0,0,1,1,2,2,3,3,4,4,5,5,6,6,7,7,8,8,9,9,10,10,11,11,12,12,13,13,14,14,15,15,17,17,18,18,19,19,20,20,21,21,22,22,23,23,24,24,25,25,26,26,27,27,28,28,29,29,30,30,31,31,34,34,35,35,36,36,37,37,38,38,39,39,41,41,42,42,43,43,44,44,45,45,46,46,47,47,48,48,49,49,50,50,51,51,52,52,53,53,54,54,55,55,56,56,57,57,59,59,60,60],"right_children":[2,4,6,8,10,12,14,16,18,20,22,24,26,28,30,32,-1,34,36,38,40,42,44,46,48,50,52,54,56,58,60,62,-1,-1,64,66,68,70,72,74,-1,76,78,80,82,84,86,88,90,92,94,96,98,100,102,104,106,108,-1,110,112,-1,-1,-1,-1,-1,-1,-1,-1,-1,-1,-1,-1,-1,-1,-1,-1,-1,-1,-1,-1,-1,-1,-1,-1,-1,-1,-1,-1,-1,-1,-1,-1,-1,-1,-1,-1,-1,-1,-1,-1,-1,-1,-1,-1,-1,-1,-1,-1,-1,-1,-1,-1],"split_conditions":[-4.5977536E-1,-2.4399729E-1,1.4765224E0,-1.6740303E0,-3.3565155E-1,-1.1602257E0,5.8785546E-1,-8.1127274E-1,-1.259233E0,6.765371E-1,-7.994528E-1,5.616001E-1,-1.1026641E0,-5.736237E-1,-6.9468087E-1,-1.8978418E0,2.39889E0,3.0417043E-1,1.1060911E0,-7.214028E-1,-7.186919E-1,-1.5827959E0,-6.560325E-1,-6.467355E-1,-3.7452963E-1,1.139081E0,1.3078017E0,-9.1643524E-1,-2.7351254E-1,-8.265307E-1,1.1053208E0,-1.1392475E0,7.1003807E-1,-1.4814695E0,-1.055726E0,-1.9687976E0,3.0417043E-1,-1.6736755E0,-5.4602027E-1,-2.2532198E0,-6.783812E-3,5.909078E-1,-1.2458038E0,-2.7347556E-1,7.455592E-1,-6.978054E-1,1.3370478E0,4.3863624E-1,1.6570035E-1,8.00579E-1,-6.206241E-1,-8.96932E-1,-9.263223E-1,-1.2046304E0,-2.7347556E-1,-2.7394676E-1,-5.516003E-1,-5.4316837E-1,-7.9422545E-1,1.6596517E-1,1.5258924E0,1.0875356E-2,1.8377788E-1,-8.4584767E-1,2.2463465E-2,-6.218653E-1,-6.9879904E-2,1.5779132E0,-2.4773967E-1,-1.576773E-1,1.0230797E-1,1.84007E-1,-1.6273738E-1,-8.1861556E-2,-6.2961984E-1,2.2493525E0,-6.326397E-1,-9.6112937E-1,6.690641E-1,2.2110315E-1,-1.2238418E0,1.4969485E-1,1.7447313E0,5.565035E-2,-6.8890285E-1,7.0980705E-2,-7.0789003E-1,2.7625448E-1,-1.1323646E0,-2.5001159E0,-5.6944E-1,-2.1953598E-1,6.230524E-1,2.4457864E-1,2.062856E0,2.5054514E-1,-9.817138E-3,-6.924094E-1,-9.97723E-2,1.6648945E-1,9.3359655E-1,1.7927791E-1,